935 100
. -0.005642216 0.006187071 0.0076472736 0.008982641 -0.0048001166 -0.021666694 0.010964233 0.031648327 -0.010852874 -0.009891322 0.0019154731 -0.014367631 -0.009291969 0.011230881 -0.0010985183 -0.005449855 0.009383093 -0.0039572935 -0.008703891 -0.029279869 0.010020287 0.0076800343 0.013447975 -0.0047246423 0.0035430444 -0.00068351696 -0.010777816 0.0040862598 -0.013272784 -0.0027846508 0.0012726461 -0.0027886676 0.014489023 -0.01820178 -0.005197576 0.008205524 0.010021459 -0.011164248 -0.0063351793 -0.015322767 -0.006013188 -0.0030937812 -0.01070227 -0.004369247 0.006976779 -0.003949253 -0.014449758 0.004073939 0.010489739 0.014058822 -0.0049536084 -0.0046394514 -0.0047213156 0.0021884216 0.0027295726 0.0013832417 0.011010899 -0.00782378 -0.012971219 0.011212638 -0.0011615446 0.0010553022 -0.0015353656 -0.005210037 -0.011979061 0.014663431 0.002306683 0.015385631 -0.01537188 0.011455374 0.0017526718 0.011125918 0.007681418 -0.010349152 0.01490675 0.004173086 0.008953019 0.0008919744 -0.009397865 -0.009928876 -0.009695708 0.00379691 -0.0050214743 0.01959357 -0.009561162 -0.00039592967 0.008023803 0.007494852 0.0069427225 0.009501621 0.012708439 0.0033371225 0.004671692 0.00018208902 0.024028575 0.012375758 -0.004925767 -0.01304937 0.002058935 0.0036960787
, -0.016527224 0.011990181 0.009037924 0.0055292323 0.01412807 -0.027189387 0.0074244463 0.03905414 -0.011191999 -0.014849246 -0.0082390765 -0.027213508 -0.01262094 0.014010676 0.009115759 0.0021610558 0.016211256 0.00019449592 -0.004231896 -0.029442038 0.0062870104 -0.0008999694 0.01805217 -0.01746453 0.002835638 0.0069739115 -0.019243143 0.0018704268 -0.009919403 0.008128564 0.022905473 -0.00680497 0.0066439565 -0.021636669 -0.00055824895 0.017397901 0.009811713 -0.0017881464 0.00028578058 -0.005863614 0.013595256 -0.01826462 -0.012447629 -0.0005689955 0.006458168 0.0026720501 -0.0040616784 -0.009440423 0.009835685 0.009044638 0.012870787 -0.022920085 -0.0010282667 0.0061169122 -0.008977852 0.016720768 0.01844102 0.0050189956 -0.014202229 0.01047671 -0.007957672 0.004376771 -0.00082158117 -0.0015036262 -0.011902187 0.022833835 0.012257578 0.008357549 -0.010951183 0.02002065 -0.0088002 -0.0046114908 0.018779594 0.0046562287 0.01408183 -0.0017504741 -0.0050753625 6.142889e-05 -0.004290022 -0.0055014817 -0.022169376 0.004895793 -0.010064441 0.0118517885 -0.0048305686 -0.0051159714 0.0025634957 0.008121949 0.0168116 -0.0010150279 0.016998798 0.003240825 0.0042200284 -0.007862064 0.01810173 0.013393594 0.010762102 -0.011347104 -0.0075705857 0.0006557922
the -0.007098785 0.011117198 -0.0030940054 -0.0010983435 0.013536695 -0.012456311 0.0022858111 0.03388715 -0.016321026 -0.0020726926 -0.012089022 -0.020696888 0.0030568605 0.007210645 0.013072039 -0.01072822 0.014378265 0.0030416383 -0.00895501 -0.0321822 -0.003492653 -0.001581201 0.005160071 -0.015963135 0.0039799362 -0.0013535378 -0.0051412466 0.003013164 -0.014172876 0.005639627 0.01765555 -0.010231995 -0.0005818693 -0.017273655 -0.012588738 0.012293744 0.0026700473 -0.0041504675 -0.0068860813 -0.014702621 -0.0004541447 -0.009066033 -0.0037073337 0.006718052 0.012973961 -0.00047885612 -0.007795012 -0.009993821 0.0030063586 0.005577708 0.0059353462 -0.015164834 -0.0080094235 -0.005560767 -0.01698983 0.0020891172 0.006659821 -0.0053277 -0.019377531 -0.0010561753 0.004827104 -0.0030065803 0.012151324 0.0048252987 -0.021723583 0.025633631 0.011981458 0.018701911 -0.024248099 0.01817751 -0.00075581245 0.008993699 0.016755998 0.00024782016 0.010735144 0.012853033 0.011442074 0.006058654 -0.011608442 -0.0011671254 -0.010944537 -0.007274788 -0.022108879 0.017223323 -0.0046421047 -0.008718139 -0.0022406115 0.009371473 0.021673238 0.0037200719 0.010263731 0.0098232785 0.0112429205 -0.003921935 0.027510226 0.015561366 0.011268817 -0.0077204574 0.010069784 -0.010974202
i -0.013050972 0.014413816 0.0022364985 -0.0021599475 0.008634349 -0.016649324 0.006455029 0.026877329 0.00082246854 -0.013026185 0.0046805157 -0.006753605 -0.00020256352 -0.0021004374 0.011894557 -0.005458255 0.014644245 -0.009597356 -0.008674569 -0.010505142 0.0039205234 -0.00018212311 0.015334277 0.0048054587 -0.011891925 0.004881748 -0.0020947375 0.0023656099 -0.0031082968 0.0012964584 0.008571136 -0.005379864 -0.003041831 -0.01167934 0.0014729424 0.017446784 0.01112271 -0.010738331 -0.014896917 0.00061105593 0.0067101745 -0.0017732165 0.0043979106 -0.0029413875 0.01310511 -0.0003504844 -0.0030209199 -0.0070396443 0.0016422289 0.0021731993 0.0072332285 -0.008119711 -0.010310915 -0.008187201 -0.0111568235 0.0049301744 0.007239623 0.008520635 -0.0026984822 -0.0024295093 0.0007420903 0.005980443 0.010318935 0.00083596894 -0.005228679 0.004687666 0.0018332482 0.016823981 -0.013386076 -0.0017415257 0.0029325814 -0.0011772105 0.007024872 0.009196923 0.0067099715 -0.0019658073 -0.004091921 0.00875629 -0.011653355 0.0011728591 -0.012806085 0.0065513924 -0.0048122485 0.013396982 -0.005158071 -0.004788132 0.010634124 0.015802283 0.006328347 -0.0074629257 0.0023254806 0.0016180056 0.00060150644 -0.002413361 0.022450041 0.006307136 0.009366209 -0.012823523 -0.0014824178 -0.008002589
a -0.014034912 0.008707852 -0.0037954254 -0.002278844 0.009531947 -0.012428713 0.0068213157 0.031010272 -0.011673884 -0.0006555092 -0.012923995 -0.011468803 -0.01424888 0.008183409 -6.0479244e-05 -0.0089057125 0.0049047465 -0.00090469536 0.0052938303 -0.030171925 0.003970856 -0.0059002303 0.016315527 0.0024649743 -0.006648349 0.0042509986 -0.0115533015 0.0030596931 -0.015835362 0.0017842342 0.01808606 2.5249125e-05 0.0073506185 -0.02348499 0.004777197 0.0062649036 -0.0004846755 -0.0031220946 -0.008793375 -0.011680607 0.006671734 -0.01696 -0.012397198 0.0090923915 0.014720641 -0.011503624 -0.005140662 -0.006715985 0.011721047 -0.0006330212 0.008047087 -0.006953099 0.00889263 -0.0024632728 -0.008597534 -0.00010430514 -0.001732818 -0.010260758 -0.01263665 -0.004190173 0.005245784 -0.005259194 0.0060721342 0.0038386348 -0.017035067 0.014102532 0.014133695 0.02167184 -0.020685954 0.020738581 -0.010056372 0.009528701 0.008700402 0.0019071256 0.016237868 0.0112257125 -0.0003537294 0.010967717 -0.0008914824 -0.010998547 -0.019075755 -0.0067115286 -0.010236033 0.013037156 -0.012176488 -0.011024736 0.010732171 0.01764889 0.0032284476 -0.0014889634 0.017025966 -0.0006688734 0.0071784025 -0.0042728423 0.020795936 0.0015317617 0.011188619 -0.0026759845 0.0025914968 -0.0005736786
'' -0.012347193 0.0063206777 0.0006858644 -0.009558208 -0.006195936 -0.011439431 0.007529653 0.019572953 -0.010586174 -0.011077363 -0.008663723 -0.011413772 -0.010543516 -0.0062720617 -4.9848153e-05 -0.010789841 -0.0014175288 -0.009344334 -0.002576992 -0.015872471 -0.0071607255 0.0010107704 0.013066587 0.0038138295 -0.009086578 -0.0017199698 -0.0037017618 -0.010875564 -0.0026204644 0.007209834 0.0120579405 -0.010051043 -0.0010733786 -0.015818158 -0.0022510039 0.016326668 0.0075035547 0.0011630813 0.0005085887 -0.010584799 0.0122611215 -0.012701299 -0.008924956 -0.002290332 0.003964267 -0.005848173 -0.0053310622 0.0036501377 0.0034662574 0.0018774885 0.0050219595 -0.014994334 0.0074706073 0.009775741 -0.013383575 0.0064112702 0.014597559 -0.008470865 -0.013762114 -0.006569506 0.008875846 -0.00013139563 0.011058489 -0.006472673 -0.003897758 0.011276112 0.0028429136 0.0091162715 -0.01634625 -0.0025895014 -0.00017556254 0.008009801 0.014626252 0.0048124124 0.006368148 0.010509735 -0.0082726935 0.0045546773 -0.004494953 0.0031691024 0.0013153593 -0.0065590455 -0.0020300252 -0.0006826689 -0.0035135143 -0.01019089 -0.0036987148 0.017913284 0.005027978 0.004891258 0.016750716 0.011411184 -0.007193036 -0.0029432704 0.02029029 0.01052339 0.00082232815 -0.012616545 0.0038764917 -0.00863569
to 0.0027835376 0.001861003 0.001551405 0.0010066412 0.0048885397 -0.01378792 0.010799106 0.02329379 -0.009127107 -0.007845139 0.00072211644 -0.011799769 -0.0059354054 0.014480872 -0.00083013147 -0.004621523 0.015824793 0.0012188532 0.00092937663 -0.02940714 0.0039556534 0.00013662537 0.016236987 -0.004222268 -0.0012828658 0.0054178825 -0.012076661 -0.006754609 -0.0054476564 -0.00094119646 0.015765034 0.007208079 0.004349264 -0.008520208 -0.009322739 0.011919419 -0.004640202 -0.014195069 -0.012652388 -0.019642109 0.011062547 -0.014098108 0.0060431412 -0.0072940374 0.010522826 0.005859044 -0.014464735 -0.015568377 0.0017920801 0.0027166163 0.0031211104 -0.018276384 -0.009255334 0.0046949205 -0.014137386 -0.0030381181 0.0044292933 -0.009379563 -0.016744617 -0.006400231 2.3068495e-05 -0.0036507377 0.009525688 0.004139646 -0.014491541 0.018379645 -0.002651369 0.00557337 -0.02038132 0.005381883 -0.0054711527 0.009610296 0.006954269 0.0036889857 0.017602677 -0.0040088245 0.0060201413 0.0077943215 -0.009879478 0.0054884776 -0.0027609707 -0.0057474915 -0.017859198 0.015464692 -0.0056753233 -0.008146995 0.011668496 0.007285559 0.0037457342 0.0028952265 0.008834789 0.0038300885 -0.002294247 -0.00047566893 0.014332543 0.008604268 0.012245295 -0.012143802 -0.0004784507 0.0025494262
and 0.0021193877 0.0022026391 0.012016119 0.008044008 0.00076053775 -0.016159974 0.0091773635 0.021828378 -0.012225289 -0.013210654 -0.006728425 -0.0147788245 -0.00096029654 0.0029344975 0.0042785015 -0.0016733961 0.012217398 -0.005727762 -0.006716933 -0.031911936 0.0029736424 0.009435958 0.009138986 -0.015105535 -0.011176375 0.009809498 -0.015182249 0.0042132833 -0.01301286 0.009787831 0.0035801698 0.001272128 0.0046903105 -0.019415112 -0.0067467773 0.010235638 -0.0032007138 -0.0071543935 -0.014657677 -0.009275392 0.01351133 -0.011462832 -0.0035297265 0.0034039668 0.016241802 -0.010246547 -0.014600625 -0.00918701 0.015614122 0.0063786563 -0.0051168967 -0.011956487 0.008783029 -0.0055591455 -0.011604463 0.015976386 -0.001744529 0.0026653844 -0.009951226 0.008656964 0.008862109 -0.0021296286 -0.0009550603 0.011739654 -0.010121608 0.019946072 -0.0057167616 0.020473272 -0.01583431 0.0042947964 -0.00075819006 0.0025571405 0.015144258 -0.0036596688 0.0077573974 0.006268587 0.009956666 -0.0031120407 -0.004966458 -0.009449249 -0.016741857 0.00052467216 -0.020622244 0.017036144 -0.0032015848 -0.00464487 0.007195135 0.023763102 0.019668229 0.0010743839 0.014767073 -0.0006368075 -0.0067414003 0.0060992627 0.014239915 0.0077510937 0.0024467998 -0.011243064 0.0053494433 -0.0076248324
`` -0.013093923 0.012988213 0.005699338 0.009366123 0.009645257 -0.0068345717 0.012752944 0.01067942 -0.010455509 -1.5066616e-06 0.00021078621 -0.0143436035 0.0065120757 -0.00046738857 0.012202335 -0.0012234943 -0.0022801096 -0.00564349 -0.0076877098 -0.016174736 0.002885231 0.011318299 0.013637254 -0.010164084 0.0015539228 0.004117263 -0.009216195 -0.010591492 -0.0026606151 -0.0075630574 0.012303655 -0.0071072737 0.0092116855 0.002567131 -0.0023399638 0.011387369 -0.00042506636 0.0037183228 -0.00047011804 -0.01592009 6.244822e-05 -0.0015555554 -0.0015332045 -0.0012942218 0.0036338675 -0.003976722 -0.0034649062 0.00049261784 -0.00039687945 -0.0006161504 0.002365122 -0.0059036296 -0.00054495916 -0.003649943 0.0006792048 0.0019196895 0.006542851 1.2175144e-05 -8.6877e-05 -0.0055480744 -0.0067871786 -0.0040520355 0.011261889 -6.0162496e-05 -0.016548865 0.007284304 -0.002476305 0.012511359 -0.017991103 0.009289116 -0.011642426 0.0029538902 0.012344027 0.00663371 -0.0009856229 -0.0038463995 -0.0059745037 -0.0071331244 -0.01412233 -0.0025533421 -0.006313323 -0.0068337377 -0.00014610017 0.009462225 0.0033300247 0.00017225443 0.0019407485 0.00078192825 0.004538783 0.0064073806 0.0019309015 0.0033158448 0.0037197557 -0.0015537312 0.019655654 0.013046323 0.004768909 0.0032853705 0.0068026483 -0.007524547
of -0.01135818 0.00012515145 -0.004699785 0.008439968 0.0030348531 -0.023446288 0.00063226506 0.030996788 -0.009511468 -0.010674946 -0.004489333 -0.017570931 -0.00715057 0.006664884 0.0014205353 0.0047403486 0.011386609 -0.015752973 0.00603532 -0.02931457 0.0038265462 0.007341837 0.0023233232 -0.008287142 0.005006519 -0.0008420323 -0.01918249 0.0072676125 -0.008653647 -0.0034527527 0.018790035 0.0022813338 0.010075383 -0.0033012615 -0.0118425675 0.017009655 0.00463841 -0.001909609 -0.0055045974 -0.007388062 0.008893742 -0.0028676884 -0.005654582 -0.004465694 0.00730013 -0.0015235142 -0.010969209 1.4246414e-05 0.010221342 0.013197025 0.006413862 -0.0023706658 -0.002248657 0.010107607 -0.0028015126 -0.0014134694 0.0031395047 -0.0036690477 -0.005855804 0.0010017795 -0.0024360823 0.008702235 0.012195976 0.0010816333 -0.017029164 0.008630447 -0.0013046785 0.0016303151 -0.013100984 0.0060612503 -0.0016232416 0.008814985 0.006120894 -0.011208401 0.013375982 -0.0028523912 0.0040073483 -0.0019362414 -0.00035129182 -0.00034806196 -0.006041217 -0.0019544396 -0.013343252 0.0220342 -0.0032687378 -0.008055198 -0.005691903 0.0152366925 0.017780729 0.008773762 0.003208152 0.012236821 0.0053126654 0.007329173 0.02591026 0.00095415756 -0.0048495745 -0.0010516094 0.010943753 0.00042846517
was 0.0028511954 0.0029993807 0.010109105 -0.009586091 -0.004726038 -0.017749818 -0.000687293 0.022616893 -0.008405326 -0.013066637 0.0042664735 -0.013731709 0.004862023 -0.001256571 0.0070849736 0.002321503 0.007340922 -0.0068349196 0.0026790018 -0.023815569 -0.00074194075 -0.0006726351 0.012305568 -0.00755175 -0.008554165 0.006460246 -0.008153766 -0.0049483594 0.0026098127 0.0046506664 0.0029890637 -0.0006752163 0.0131187895 -0.0008245286 0.004039322 0.012481501 0.004216741 -0.0059812246 -0.011110099 -0.008223951 0.0014728111 -0.0066685793 -0.007911352 0.007432967 -0.0017498517 -0.010077794 -0.007871962 -0.0058548287 -0.0033611988 0.0044218847 -0.0029294207 -0.008333916 -0.007941916 0.0033773533 -0.0011272178 0.004603154 -0.0005053089 -0.002491251 -0.00018448876 0.005084845 -0.008605014 -0.0027590222 0.0045376215 0.00398967 -0.017782474 0.013892263 -0.006326844 9.817297e-05 -0.00615136 0.003567161 0.0007554914 0.01107984 0.0035670102 0.008346694 0.009751625 0.01248354 0.006657961 -0.007973922 -0.008299146 0.005698988 -0.0011149369 0.009199788 -0.00096978544 0.017969662 -0.013152476 0.002734719 -0.003704367 0.013118949 0.013660064 0.0067267376 0.01577859 0.003945272 -8.9105524e-05 0.0055895327 0.0053123385 0.006078808 0.012363557 -0.010068865 0.004831401 -0.010366486
epicac 0.0062499307 0.0121801095 0.0029603266 0.0051431116 0.004846055 -0.016304402 0.0016624558 0.021776885 -0.008482556 -0.008245716 0.0013345695 -0.0059670415 -0.0051547787 0.00036075083 0.008905238 -0.008187124 0.0010080994 -0.009897658 -0.004580868 -0.021795684 -0.002752944 -0.0070032855 0.005949355 -0.012060182 -0.011769022 -0.006263048 -0.01343032 0.005489643 0.00019260838 0.00087438547 0.0031156836 -0.00866734 0.0039000025 -0.0068748756 -0.0018652127 0.007620325 0.0022600295 -0.003502381 -0.012513268 -0.012708154 -0.005852325 -0.0067503448 0.00037931395 0.0075627617 0.002738624 -0.0048401975 0.004970611 -0.0035246327 0.0014190531 0.012161082 0.005045904 -0.011606687 0.0060295165 0.005863768 -0.011018844 0.0037564533 0.005374276 0.0051866667 -0.008079227 -0.0015828443 0.0018878292 0.0015844385 0.0031429694 -0.0010494626 -0.013380833 0.015321345 0.009788607 0.015170491 -0.017447654 0.008871004 -0.00579711 0.011718842 0.009225428 0.003793693 0.0093903225 0.008613716 -0.0048083416 0.009172113 -0.0071516177 -0.0054921815 -0.007907789 0.010063239 -0.013898965 0.006140239 0.0042812037 -0.0014479106 -0.0052246633 0.0018685553 0.015775422 0.00812777 0.012063726 -0.00090933713 -0.008554122 0.0039164033 0.017007075 -0.00059983524 -0.005309957 -0.007112898 -0.004155627 -0.0041939924
he -0.0054810154 -0.0014793768 0.010976164 -0.009423741 0.0071571604 -0.00357207 0.0012556998 0.023183899 0.0064815846 -0.009263912 -0.009425528 -0.0147822 -0.010720569 -5.3466705e-05 -0.0031908718 -0.010605244 0.0047147823 -6.005626e-05 0.0060866415 -0.015009733 -0.0027020343 0.0027647007 0.0044314223 0.004796477 -0.001493854 0.008918765 -0.014251215 0.0073815533 -0.005384514 0.009109501 -0.002279382 0.00058387185 0.0040372033 -0.0068477327 -0.006822541 -0.0030403673 -0.005843789 -0.011211511 -0.0019144098 -0.0060120546 0.0005641442 0.0021507596 -0.0036527843 -0.00144897 -0.0047078165 -0.012543346 0.0046697045 -0.009254502 -0.0028566732 0.0082479175 0.0084727835 -0.012445814 0.00061869394 -0.00509444 -0.0017082709 -0.00061221916 0.00058916584 0.0015607887 0.0027307654 0.008129875 -0.00935405 -0.00530582 0.009859657 0.0036716373 -0.011005741 0.008184395 0.011247133 0.0050573666 -0.0172875 0.007418012 0.0041744197 0.0080427565 0.009891391 -0.006353626 0.0060163816 0.0022426518 0.005599497 -0.007089293 -0.012141209 -0.0006090413 -0.014204692 0.0061981874 -0.0068437853 0.017999653 -0.007897826 -0.00197248 0.008939335 0.003837463 0.001163638 0.0034647502 0.009501586 -0.00047483968 0.007558848 -0.007690984 0.012352195 0.0053794375 0.011343542 0.0023910645 0.0076077934 0.0059883785
that -0.012864996 0.013267398 -0.00620951 -0.0029010538 -0.0018399063 -0.014180726 -0.0050593237 0.006836518 -0.008292395 -0.0050504063 -0.008364326 -0.002009972 -0.01269515 -0.0023123368 0.012145442 0.004606928 0.011727982 0.0011019675 0.00035100334 -0.018573629 0.007639766 0.0042374623 0.01194485 0.0031547735 0.006191452 0.01041677 -0.016381359 -0.007865469 -0.002010865 0.0070353416 0.013003739 0.004324568 0.011050164 -0.012072051 0.0047196345 0.0022601928 -0.007796365 0.0058858804 -0.0027670325 -0.009120694 2.5751731e-05 -0.009060268 0.0035826694 0.004545771 0.0017197195 -0.009495169 -0.0077697895 -0.004009282 0.009696127 0.00015638358 0.0017812707 -0.0049432963 -0.0076205274 0.0032977327 -0.0051791286 0.0066208146 0.00904804 -0.0020809255 -0.008715225 0.008870597 0.0052588102 0.0073495475 0.0062548066 0.010309191 0.0007453852 0.0065170773 0.010758709 0.010946215 -0.0028460473 0.004342382 -0.0043133474 -0.0026605667 -0.0027067575 0.002257548 0.0155873345 0.011187588 -0.0010723503 0.0071576363 -0.0007110056 -0.0051428364 -0.0035227148 -0.0050767167 0.0015974698 0.013525288 0.0006006183 0.002903054 0.009627622 0.015303218 0.0054572686 -0.005390506 0.015308171 0.00925754 0.0026779661 -0.0014095282 0.0031056732 0.0002215308 0.011093612 -0.006850977 -0.0055186595 0.007959198
it 0.004847382 0.012241092 0.0025718831 -0.008401371 0.010850069 -0.011490223 0.008175238 0.016653324 0.006633508 -0.012575512 0.00651619 -0.016018676 -0.009595267 -0.0066133267 -0.0035836268 0.0055828863 0.012636951 -0.005992368 0.0034770067 -0.0144072445 0.009157441 0.0073041064 0.003596191 -0.006517441 -0.008509935 0.0062479703 -0.00391496 -0.0035815977 0.004799666 -0.0035296155 -0.004524141 -0.0032403201 0.0029751502 -0.012492492 -0.0071260594 -0.0031512827 0.010527416 0.004397008 -0.0035818 0.0017335289 0.0101149585 -0.0051188837 0.0053846594 0.0033944144 0.008640986 0.0052798023 -0.008350621 -0.0050583994 0.003984342 0.0068760063 0.0050232676 0.0001285795 0.0042042974 -0.0073781745 -0.0061169793 -0.004120851 0.01337105 0.004495164 -0.004695263 0.005188988 -0.007413494 -0.0057820184 0.0044749975 0.00798424 -0.0017193987 0.01260253 -0.0003663827 0.0018310039 -0.006297867 0.0017663788 -0.0073723597 -0.0063416953 0.011563204 -0.0015434263 0.0034726146 -0.0060341577 0.01005054 0.0016444791 -0.0016706806 0.001932343 -0.011955625 0.002146569 -0.0026826113 -0.0017672739 0.002932254 0.0014521158 0.008664299 0.011497701 0.0021543498 -0.005673616 0.0130391605 0.0036980037 0.0057396474 0.0064596096 0.009796282 -0.0021494452 0.00195299 0.0050232937 -0.0055283858 0.008042986
's -0.010343381 0.007843671 0.0033556037 0.007260545 -0.002086684 -0.013137603 -0.003346782 0.016528819 -0.008006645 0.0049790633 -0.0075279498 -0.016541159 -0.0077350913 0.0091404375 -0.0041633686 -0.0073755155 -0.0035230299 0.0032220508 0.002943855 -0.008839111 -0.0016345669 0.0073283804 -0.0021370968 -0.0052793324 -0.0076526343 0.00071908487 -0.007734065 0.007406381 -0.0033278954 -0.008103405 -9.9406905e-05 -0.007895094 0.0056165704 0.002804854 -0.0075669675 0.01414439 0.009604457 -0.010113427 -0.012859746 0.0034157643 0.010612907 -0.00925042 -0.008083304 0.007926662 0.007786479 0.0060326206 -0.011406155 -0.012824327 0.0048931073 -0.00677819 -0.003093419 -0.008749949 0.009209606 0.009527286 -0.0062994403 0.009173995 0.01210735 -0.0028547326 0.0038380534 0.008221778 0.002295681 -0.0035110745 -0.0034051323 -0.0016870685 0.0016359577 0.00089911674 -0.0010640667 0.015007895 -0.0040437803 0.011609698 -0.010214558 0.00094030134 0.010944746 -0.005606953 0.013528829 0.01142825 0.0006387563 -0.0010822603 -0.0045575467 -0.0066038016 -0.013506494 -0.0011689551 -0.008641151 0.011721044 -0.0093162265 0.0041584526 -0.005731604 -0.0005146 0.014309712 0.010465035 0.00287579 0.0054586227 -0.0051054102 -0.008902263 0.002833946 0.011136791 0.008657684 0.006098584 0.0077962554 0.005219936
n't -0.0019261731 -0.0063647055 0.0060495217 -0.0007468677 0.009215758 -0.0068605845 -0.00044622397 0.021288754 -0.0018993741 -0.0032607182 -0.007767666 -0.016022244 -0.010678427 0.011747569 -0.0066243666 0.0070997984 -0.005143312 -0.0033346198 -0.0020884578 -0.020926353 0.010182027 0.008268128 0.0072191083 0.0018207688 -0.0014603784 0.011101044 0.0012449862 -0.0109490445 -0.0076202634 -0.000678906 0.0085043 -0.00528883 0.0043671075 -0.014521599 0.0009071716 0.010519528 0.0060169245 -0.00625043 -0.011994614 -0.015486086 0.0016628999 -0.012126019 -0.008073687 0.0061238892 0.011187533 1.623359e-05 -0.01212392 -0.008946452 0.011559637 0.006933315 -0.0033301965 -0.0128243975 0.00014512135 0.004522689 -0.0013851194 0.0065679927 -0.0018511821 -0.010511613 -0.012573837 0.0013687641 0.004919079 0.0052560586 0.0033314063 0.006710336 -0.006603592 0.011326287 -0.007186554 0.013454439 -0.0013366385 0.010754944 0.0051606447 0.009988018 0.0061649056 -0.002401933 0.006578765 -0.007534495 0.009256787 -0.005265442 0.004473077 -0.0048251734 -0.0045991503 -0.009071512 -0.015940737 -0.00026633687 -0.010291236 -0.00080680347 -0.006008774 0.0024615882 0.0004633092 -0.0028093779 0.013761169 0.0067108097 0.0096892435 0.007007029 0.0026716148 0.01180345 -0.006974742 -0.006246102 -0.007088916 0.0027050315
me -0.0023316988 0.011439105 0.0048440327 -0.0068823337 0.011050878 -0.01664425 0.012203107 0.019401256 -0.008270484 -0.009019925 -0.008379084 -0.015707385 0.005982702 0.0007851965 0.01052857 -0.012371842 0.0067219283 -0.005004569 0.0070521035 -0.023388721 0.009545768 -0.00314631 -0.0012073726 -0.00945675 -0.0055464758 -0.0013256737 -0.010269661 -0.008772985 -0.0035229865 0.00019683038 0.0048297397 0.0024408486 -0.0041517 -0.011256727 0.0028686523 0.015849506 -0.0082489755 0.0033984638 0.00049809075 -0.011251378 0.01114775 -0.015165468 0.0056931702 0.0053632497 0.006212674 -0.007908603 -0.008982669 -0.007531821 0.005737786 0.005321475 0.009986665 0.003457562 0.008461144 -0.002762648 0.0057471013 0.0036314123 0.009797781 0.001790781 -0.007440686 0.005044088 -0.0051522152 -0.0052710925 -0.005543141 0.0035980341 -0.0014696433 0.009506832 0.0033698701 0.010311346 -0.0010209238 -0.0008637417 -0.00022975501 -0.005514602 0.010498223 0.008664845 0.014889886 0.008917083 0.009143925 0.007809614 0.0019701617 0.0078583285 -0.011421729 0.009727928 -0.0024358784 0.006689069 0.0056521585 0.003395743 0.010994449 0.011751018 0.01709243 0.00335154 0.017225124 0.0057871076 0.0074881115 -0.0038462856 0.017358106 0.012860169 0.00074701983 -0.006041917 0.004550458 -0.009065131
him 0.0066337744 -0.006324052 -0.0051486115 0.0027819725 0.008917691 -0.013543605 0.005374298 0.022120925 -0.01017134 -0.009439461 -0.007943666 -0.010849157 -0.00086388254 0.012190604 0.008554893 -0.0017968507 0.0061557656 0.0055837384 0.008709337 -0.005796128 0.0073771346 -0.0063597937 -2.0145906e-05 -0.008767017 0.0044618514 -0.000593366 -0.014477889 0.006468035 0.0050941855 -0.0027466558 0.014223258 -0.0019393282 -0.0008558658 -0.006759845 -0.0013747797 0.0022295867 0.0041005276 0.0026066948 0.0031867565 -0.014869461 0.00017126226 -0.010311759 0.006473888 0.006403725 -0.00062795094 2.3257799e-05 -0.009591431 -0.002859633 0.0128119625 0.00016038615 -0.0033537804 -0.012613615 -0.0032465525 0.00020224316 9.1518945e-05 0.01318264 0.0004673542 0.0013628942 0.004443085 0.0026381619 0.0012553604 0.010287609 0.011018253 0.009264834 -0.012304795 0.016986027 0.007530936 0.014692137 -0.009245423 0.008701687 0.0049241446 -0.0023079165 0.011969057 0.0017579251 0.015304729 -0.00088187 -0.0023440947 0.0072537283 -0.012770076 -0.008122059 -0.011633815 -0.0004092208 -0.008406905 0.013991645 0.006844137 -0.0021721814 0.002489519 0.009256556 0.0036163582 -0.0064371335 0.01373027 -0.0023904536 0.005376648 0.0088515105 0.011380746 0.0075077065 0.0064537637 -0.006006484 0.00456671 -0.0015496509
for 0.0018410688 0.0096352445 0.0036506422 0.005975586 -0.0057648094 -0.0035748112 0.012109915 0.011776978 -0.0024314637 -0.009371444 -0.0027703538 -0.0062884605 0.004696748 0.0038449974 0.0051802997 -0.0012250015 0.012893188 -0.0092718275 -0.0065747253 -0.017630648 -0.0006291627 0.0068760524 -0.003595675 -0.0066827806 -0.010163752 0.0070808483 -0.009355624 -0.010300935 0.00012374824 0.00984901 0.0030930003 -0.0073309676 0.0065178713 -0.00817326 -0.01207022 0.015515818 -0.0058819093 -0.00867801 -0.0070948466 -0.012757652 0.004485201 0.004275272 0.0030197778 0.00801496 0.0041905576 -0.0017470861 -0.00743777 -0.01250393 0.0073576225 0.0055537894 -0.00707186 -0.011278208 -0.0101531185 -0.0044346177 0.00021471042 0.012748122 0.0086551 0.0015088537 0.001489223 0.00032984183 -0.0013372924 -0.008222352 0.0016643238 -0.0010218454 -0.0070727444 0.015467548 -0.004945586 0.0029028063 -0.015533826 0.0028897831 -0.0058158156 0.0040910696 0.009899358 -0.0057944045 0.0025337955 0.0035585233 0.00658291 0.006497411 -0.007669892 -0.005238909 -0.011967204 0.00031610287 -0.005345407 0.010349232 0.0044185664 -0.00419409 0.001236764 0.003078261 0.0056545134 -0.0057656975 0.006687291 0.0036171495 -0.0076095285 0.008814628 0.0010123315 -0.0044944165 -0.0057332264 0.0030879467 0.0064738104 0.0073223743
pat -0.00065979065 0.0046432083 -0.0009084128 0.009333683 0.006012829 -0.0050935037 0.0017979871 0.015433321 0.002974106 -0.0046660346 8.898076e-05 -0.008731513 0.0021603955 0.0068109715 0.0051939697 -0.007505745 -0.0007316586 0.0009194578 -0.006215735 -0.012667687 0.00083889894 0.0050213216 -0.0042182845 0.005498957 -0.0031370432 -0.003603129 -0.0022851268 -0.0029644333 -0.011237301 -0.0037806046 0.005276453 -0.010032198 0.0040143086 -0.0043708244 -0.0051550595 0.009041686 0.0038364616 0.0065448205 -0.0028620732 -0.00428555 0.0052210763 -0.007094486 -0.010161395 0.008008125 0.002557176 -0.011884197 -0.010631967 -0.007381847 0.0075914795 0.008213168 0.008281264 -0.012615434 0.0002481111 -0.001691891 -0.008716903 0.010694053 0.008067754 -0.0037767172 -0.013905354 -0.004003543 -0.00046588035 0.008384687 0.0078061773 -0.0068419445 -0.016275657 0.014679343 -0.00017359822 0.0024018288 -0.0024193758 -6.201894e-05 0.002930666 0.0014689817 -0.0011572507 -0.0011032971 0.012782094 0.011474568 0.00301161 0.0061267545 -0.009327622 -0.0014073593 -0.010828589 0.001600581 -0.008486833 0.004119583 -0.0091893105 0.008462919 0.0041574193 0.0053671384 0.0022072901 0.009434243 0.00045473574 0.0050232317 0.0014416578 0.0083223 0.016033396 0.0015639885 0.0050882907 -0.005346215 -0.008705281 -0.0045010187
in -0.0021515859 0.01064099 0.011849535 0.0093015535 -0.004932234 -0.0034702756 -0.0025946808 0.014884668 -0.003394712 0.0024378127 0.0008560769 -0.00419749 0.0062840623 0.0038188002 -0.0033217203 -0.008576129 0.011013716 -0.008896336 -0.003081285 -0.009611708 -0.0004145981 -0.0042916583 0.0021890006 -0.0024595265 0.00026484125 0.007968893 -0.011966255 0.001780206 0.0034376972 0.0031448235 0.011558481 -0.00617529 0.00960134 -0.015176673 0.0012602567 -0.0023478852 -0.0011374262 -0.012681855 -0.005694771 -0.012712811 -0.0011665329 -0.0042963247 0.0011924849 -0.0016970533 -0.0035204552 -0.008373279 -0.0039828257 -0.007600339 -0.005395194 0.0025949073 0.008909755 -0.0002874784 -0.010560593 0.004192482 -0.0099461125 -0.0051304 0.0045879916 -0.0009451045 -0.013293123 -0.005081988 -0.0023111443 0.0073955725 -0.005817092 0.009496011 -0.007951362 0.009225451 0.011798767 0.011399304 -0.012392084 0.010067016 0.0012069391 0.008152741 0.006290329 -0.005247099 0.008284318 -0.0032347012 0.00241072 0.0059397034 0.0006632075 0.008640829 -0.013655957 -0.004714101 -0.00072271907 0.010073479 -0.009527962 -0.0007400255 0.0040638354 0.0057167467 0.0016603452 0.006830129 0.017393894 -0.0051447223 0.000900939 -0.0025479347 0.0036178133 0.00364668 -0.0026216283 0.0048207454 -0.0048538605 0.0018387763
my -0.0037275518 0.008087871 0.00392588 0.009976386 0.0036762885 -0.014933015 0.0016932029 0.017013332 -0.0072821425 -0.011944907 -0.009226339 -0.015192847 0.0031755336 0.007106907 0.011015718 0.004109334 -0.0018493477 -0.0006944147 0.008340479 -0.0112923635 0.0049474 0.0075018364 -0.0044808886 0.0058124843 0.004987757 0.010349871 -0.014516754 0.0051186807 0.0029808646 -0.0006438176 -0.00035735813 0.003996746 -0.003428821 -0.012471072 0.0015942885 0.014752981 0.010321191 -0.00798339 -0.013513419 0.003097703 0.008940501 -0.009305023 -0.009930088 -0.004678953 0.0006141561 -0.005794242 -0.0035720787 -0.0039208536 0.00036109553 -0.0027090372 0.0117003275 -0.010700921 -0.007837108 0.008895632 -0.0012617919 0.012550957 -0.0003047612 -0.0075650634 -0.005354229 5.1689523e-05 -0.00914005 -0.0008194986 0.0047911108 0.008169475 4.1382107e-05 0.011018509 -0.0023276932 0.004641033 -0.012237662 0.011744635 -0.008505118 0.0040579457 0.004683121 -0.006591557 -0.00041624522 0.0078672 -0.0073337397 0.00051580305 -0.0014867262 0.0070927422 -0.01312893 0.0037060238 0.0031109 0.0010431546 -0.006302266 0.0038435513 0.0063801995 0.009605984 0.014475571 0.0024842625 0.008929875 0.00032092506 -0.0073156287 0.0033254111 0.011102355 -0.003853953 0.0018765322 -0.0040130247 0.00084167253 0.0069797435
on -0.0061584157 -0.0018305096 0.009252615 -0.0071844286 -0.0059853247 -0.011748797 -0.005491537 0.016151508 -0.0021519405 -0.0067185243 -0.010134904 -0.009070604 -0.0043363473 0.0068618325 0.010787385 0.003218096 0.012933183 -0.012590371 0.009154365 -0.016117547 0.010569562 0.0039910637 0.008343852 -0.01345682 -0.011462798 0.010964039 -0.009770397 0.0016589607 0.0023734812 0.00031872402 0.015940296 -0.0024124642 -0.006174873 -0.0147141665 -0.0030144325 -0.0016721139 0.00867364 -4.8425056e-05 -0.013258476 0.0015285135 0.01133702 0.00038651237 0.0053638336 -0.009567213 0.005236837 -0.011673869 -0.008274576 -0.0035045794 0.00348825 0.004922758 0.0054928893 -0.004079702 0.004694639 0.008559035 -0.009721795 0.011825585 0.010167773 0.009353255 -0.0018591385 -0.0022150811 -0.003536735 -0.0002981535 0.00023994817 0.011416388 -0.0061408677 0.012184055 0.005734739 -0.002100792 -0.002095443 0.014604067 -0.0040071304 0.0042137373 -3.8869974e-05 -0.0071881777 0.015234902 -0.000651833 0.007835315 0.0026696275 -0.006598859 0.002400997 -0.010090535 -0.0012160499 -0.0060022403 0.013629459 -0.0041493233 -0.0008853503 -0.0065976307 0.017905684 -0.0017842167 0.008969967 0.011371776 -0.00487025 -0.0041947784 -0.007910617 0.004846298 0.012131296 0.012430058 -0.001798651 0.0015194474 0.007392713
she -0.007124641 0.0013307015 0.0042671305 -0.0063931467 -0.0076892795 -0.015570486 0.0109954635 0.014995291 -0.007243269 -0.010843733 -0.00094683765 -0.0025324174 -0.003389717 0.0033515499 -0.0027267651 0.0032410766 0.0041377074 0.0067376005 -0.01021759 -0.013938787 -0.008187344 0.0004963711 -0.005009819 0.00271439 -0.0076182955 -0.0048090816 0.00082922546 -0.009030849 -0.0008891658 -0.006846028 0.013696384 0.00781339 0.0040798355 0.0010012762 0.003399507 -0.0016539271 0.010732038 -0.012127151 0.0052653584 -0.0019396627 -0.0014385553 -0.0070319395 0.007998083 -0.0054828054 0.0113313 -0.007678153 0.005606935 -0.0030164658 0.010663079 -0.0010926235 0.0074173384 0.004797197 0.0021359327 0.002185078 0.0025800029 0.01044555 0.011473153 0.008000804 0.003103839 0.008745802 0.008722423 0.0003333232 4.9148424e-05 0.0028207342 -0.0046406696 0.0059715845 -0.007226792 -0.005393282 -0.0078767 0.013023398 -0.005263445 -0.0056787333 0.008797869 0.00043429062 0.0063437307 0.005134269 0.0040434003 0.0064616497 -0.0017175549 0.00028399113 0.00530431 0.0028588967 -0.009346752 0.011972366 0.0036241286 0.0021571033 -0.002310982 0.008517493 0.01067466 0.008378543 0.005623472 -0.007007397 0.0006971277 0.00041089475 0.010207122 -0.0064113415 0.011349042 -0.009352802 0.0063149547 -0.0105361985
with 0.0055962224 0.011938356 0.0033184572 -0.0035596257 0.0026369588 -0.0106627075 -0.0028166906 0.02292963 -0.0020817744 -0.0009187591 -0.011250697 -0.0009994722 -0.003063394 0.0031115827 -0.006137295 0.00131211 0.011897508 0.0037930775 -0.0066433563 -0.022978727 -0.003907458 0.0010724708 -0.0031332246 -0.012543698 -0.004158455 0.0031904327 -0.017357437 -0.0052463594 -0.0036452676 0.0074334545 0.008385844 -0.002179581 -0.0035402665 -0.014937316 -0.0027291777 0.015321704 0.0069557982 -0.0058081993 -0.0035597626 -0.017703835 0.0016437705 -0.010789093 0.0042862766 -0.0023435273 0.0003616694 -0.01250238 -0.0065765367 -0.01153071 0.0024065792 -0.0006963883 4.3456366e-06 -0.0100891935 -0.008838761 -5.2253676e-05 -0.0028365322 0.00026928386 -0.0026005507 -0.004407734 -0.016293181 0.00069900055 0.0062730955 -0.0024196128 0.005355331 0.007128575 0.00023924994 0.015041974 0.011763974 -0.0022830092 -0.017585153 0.00014956282 -0.010266412 -0.0058883885 -0.00096545 -0.0040497063 0.009395761 1.7880922e-05 -0.007840947 0.0060400856 -0.004065735 0.0036036216 0.0005332558 0.008157234 -0.008417774 0.013517496 -0.008485104 0.000501393 0.0059247334 0.01951269 0.0042969356 0.00489314 0.0025638675 0.00038658595 0.009224729 -0.0040165912 0.009705974 -0.0036714817 -0.0065791467 0.004790525 -0.004728709 0.0029028135
about -0.009610656 0.00045040395 -0.0066742213 0.0076301196 0.008488589 -0.002015178 0.010619126 0.010826771 -0.012020498 0.006119345 -0.0076624416 0.0014342642 0.0031193737 0.0014794876 -0.005607212 -0.0031188799 0.009468497 -0.009539439 0.0014289772 -0.017805321 0.010055833 -0.0015306879 0.012652266 -0.008357998 -0.011426453 -0.0072376803 -0.009147227 0.003970092 -0.0029612244 0.009768572 0.0076675382 0.002823823 0.0056128805 0.0026937763 -0.0041102124 0.012459785 -0.008295478 0.00037193394 -0.004112365 -0.0046288283 0.008849399 -0.006874607 -0.0032954502 -3.655791e-05 0.003009262 -0.00540005 0.0027843728 -0.009408951 0.010993665 0.0022386997 0.00418988 -0.001391468 -0.00044361336 0.0026584042 -0.0057648495 0.008211648 0.0034960958 -0.0037733612 -0.013403052 -0.009109889 0.0003453924 -0.004895689 0.00015715731 -0.0028916283 -0.013868498 0.007031594 0.0073675276 0.0025703716 -0.013438098 0.0076903338 -0.0020051156 -0.004240818 0.003471766 -0.0011868785 0.0019181579 -0.0084517775 0.008236352 0.0046160445 -0.0057782377 0.00672497 -0.00393477 0.0074436297 -0.0068359557 0.013713729 -0.0020343803 -0.0070674615 -0.003915621 0.015855042 0.005816707 0.0025515095 0.014095418 -0.004745662 -0.0014408029 -0.008325083 0.00016097556 -0.004895891 0.005822764 -0.00036032448 0.006268862 0.0009852323
? -0.00041674523 0.008868261 -0.00096703006 0.003130508 0.010799417 -0.0068502305 0.008692435 0.004467271 0.0037859096 0.0016655566 0.0024601386 -0.01637652 -0.0026326922 0.005564974 -0.0040293424 -0.008496566 0.009443207 -0.009444639 -0.0055982484 -0.001716456 -0.005800454 0.009682872 0.0038736253 0.0015813075 -0.0042934404 -0.004082595 -0.013956319 -0.0016794165 -0.008117933 -0.0026218898 0.012502136 -0.00864987 -0.0036122904 -0.010833225 -0.008087049 -0.0038033614 -0.0001452379 0.0066581033 0.004639375 -0.01049231 -0.0064529567 -0.00616083 -0.010446798 -0.005107905 -0.0023163205 0.0012031519 -0.010609324 -0.0014285597 0.005205225 0.007674889 -0.00033092455 -0.014395606 0.0048425696 -0.004978314 0.0020185683 0.0050340267 0.012118409 0.0010343265 -0.0065758093 0.007436567 -0.0068182508 -0.008173809 0.0052318857 -0.0013318065 -0.0095363185 0.0041883583 -0.008543096 0.0051005096 -0.00736135 0.0017278019 0.00064401695 0.0060675787 0.0110030975 -0.008768199 2.5237325e-05 -0.0068881484 -0.008186668 -0.0030655041 -0.004690554 -0.008991074 -0.009875856 -0.0017956175 0.0010062536 0.007700022 0.0064382153 -0.009401417 -0.0035312423 0.0052590095 0.013755001 0.0026034717 0.0069400566 0.0029603785 0.0035516336 -0.009443436 0.010609877 0.009039293 0.0072908136 0.001745082 -0.007494967 -0.00559924
out 0.0048019597 0.0036047024 -0.007941778 0.004764974 -0.0029112787 -0.0035071857 0.008584024 0.011151141 -0.0017136291 0.0009642608 -0.007608539 -0.0105461925 0.006094317 0.012483924 -0.0065070284 0.0050940868 0.014550052 -0.0065189786 0.002213555 -0.016713502 0.0105373915 0.0013142704 0.010397415 0.005345138 0.0019471692 -0.0054228725 -0.009030582 -0.00036688516 -0.0018460352 0.0038079629 0.01579719 0.0029851026 0.013514753 -0.016203554 -0.00800195 0.0093748495 0.0052267667 -0.004841318 -0.011474452 -0.010407947 -0.006004041 0.003883771 0.0021722522 -0.0077480604 0.008095024 0.0015455025 -0.010556288 -0.009718848 0.004749977 0.012295156 -0.007357328 -0.0063320366 -0.0072885226 0.00011650798 -0.000987076 -0.0011367548 0.001558569 9.815152e-05 -0.013133005 0.008557433 0.0046483804 -0.00802165 -0.00019065438 0.0048302924 -0.015876481 0.0011604322 -0.005988682 0.0013990245 -0.00034338864 0.013559505 0.00030992058 -0.0066558276 0.012300575 0.0037689824 0.007435368 -0.0064412085 -0.0008979674 0.0013631791 -0.012444403 0.0017351692 -0.0055504497 -0.0066736173 -0.015445084 0.01525602 -0.011317645 -0.0070441654 0.006868705 0.008173107 0.004027134 -0.0032170168 0.006352382 0.0075740805 -0.0049769795 -0.0051156916 0.005193478 0.00028271202 -0.005248063 -0.01400353 0.008788535 0.0060615405
his -0.0075418632 -0.0057273046 -0.00040696355 -0.0040009636 0.012092102 -0.0059605762 -0.0033027234 0.01053677 -0.013426233 -0.0018981042 -0.007216984 -0.01048142 0.0022353302 0.010511832 0.0067894454 -0.009183026 0.01082409 -0.012951782 -0.007349414 -0.020406358 -0.00087086734 0.0018050959 0.00033452292 -0.001190177 0.007532662 0.008382497 -0.0069913454 0.008004956 -0.0017121044 -0.001348759 -0.0010859778 0.005489249 -0.0060843136 -0.0088086855 0.006080388 0.0034736795 0.0029014237 -0.01063429 0.0011024601 0.0011250335 -0.007032179 -0.008107473 0.006745766 0.0028378526 0.004169661 -0.0021066212 -0.013874979 0.0066930964 0.0014684623 -0.0017436177 0.00475855 -0.0045568193 -0.0065374067 0.0069126054 -0.0061950353 -0.002711846 0.0112728365 0.00594157 0.0031654243 0.0022858023 0.000779168 -0.0076436233 0.006676797 0.0110847065 -0.007528695 0.00555967 -0.0018588576 0.00545047 -0.015602791 0.011504264 -0.00045364737 0.011122561 -0.0006595446 -0.0058587254 -2.869494e-06 -0.005244904 0.0037854912 0.0059816656 -0.0027812733 0.0028973073 -0.01482504 -0.00090334256 -0.014393042 0.010669246 -0.005314433 0.007496165 -0.0023046406 0.014407449 0.010346566 0.0032331403 0.0066884365 0.010057329 0.0034718243 0.008330588 0.012251005 0.010080815 0.007627235 -0.0112356655 -0.0051908754 -0.0006027147
had -0.0037317257 0.006149009 0.0029995043 0.0076449933 -0.0013191588 -0.009771992 0.010113475 0.017933503 0.00050579745 0.00018336378 -0.0049273954 -0.017093925 -0.0005166043 -0.005574879 1.4802548e-05 -0.011734045 0.0041210563 -0.0115588475 0.0070442273 -0.01873454 0.01142923 -0.007302276 0.00014203934 -0.0017895823 -0.0047512245 0.0034170295 -0.010564966 -0.0019548128 -0.009785954 -0.009230467 0.012755551 -0.00079985784 0.010301789 -0.015095693 0.0017382419 -0.0027803187 0.009149513 0.001926518 -0.010568939 0.00091094855 -0.0026921374 -0.013812918 -2.4940951e-05 0.0027588198 -0.0034860594 -0.0116065545 0.0048426315 -0.0019915984 0.0048018023 0.0058718673 -0.0014676183 -0.0047219256 0.0015190922 0.011073423 -0.009690953 0.0066242036 0.010811843 -0.0075122206 -0.0155426385 0.009941325 0.007194323 -0.003639826 0.0076432293 0.002648102 -0.012464523 0.0070233396 -0.00296344 0.012871848 -0.0068022683 -0.0018159199 -0.0023370613 -0.0009407561 0.013164485 -0.002011224 0.014758158 0.0042305393 -0.002799499 0.009055991 -0.0014187609 -0.00470118 -0.011687641 -0.002780908 -0.01237539 0.012494424 -0.01237266 -0.007214236 0.004716979 0.008867271 0.012791721 -0.0015228273 0.0074832453 0.004646049 0.0064422586 0.0014456587 0.019699024 0.008777945 -0.0047252616 -0.0054537896 -0.007632708 -0.0075702607
said -0.004677981 -0.006896802 0.010431138 0.0018581254 0.001194402 -0.012216138 -0.006531805 0.00055398606 0.00628762 -0.0054455 0.0021868881 -0.010402122 0.00784277 0.0057633524 0.003008197 -0.005828836 0.004326811 -0.004963454 0.007037776 -0.004625803 0.0021060184 0.004373293 0.006853078 -0.009216323 0.007823846 0.0029704743 -0.0104027605 0.0077440813 -0.003927362 0.008684688 0.0026421205 0.006266627 0.0049825353 -0.009553716 -0.00507319 0.013621163 0.0024141255 -0.008488721 -0.002610181 -0.006756992 0.0032822345 -0.011284916 0.0064200736 0.0013602513 0.010935462 0.0026859671 -0.0074754413 0.0012572685 0.0020084174 -0.007533255 0.009827126 0.005230191 0.009303716 -0.0031194612 -0.011053378 0.007550018 -0.004642209 0.008120362 -0.0015499389 0.0064731482 0.0063918596 0.00083079585 -0.00078767515 0.0019980494 0.004715012 -0.0015162939 -5.293146e-05 0.0022227697 -0.001146588 0.010819688 -0.005749077 0.004964975 2.3510649e-05 0.0026892559 0.0129055185 0.0051078303 -0.003838718 -0.002198493 0.004699914 0.009033697 0.0017705745 -0.0030850607 -0.0065967427 -0.0004016358 -0.006251715 0.0023878017 -0.0056378087 -0.0010272833 0.01281987 0.0108138025 0.01305916 0.0029797463 -0.00815314 -0.0075373957 0.008218928 -0.006047606 -0.0056134593 -0.00073462666 -0.0023814526 -0.010462228
-- 0.0029863412 -0.004848952 -0.005538135 -0.0018474414 0.0048565874 -0.011005207 -0.0021593773 0.02201033 0.004817797 -0.011568721 0.0064803767 -0.0014084115 -0.010881041 0.0012470633 0.006915769 0.0047288053 0.0007407993 -0.0104785105 0.004564436 -0.022903142 -0.004093885 0.00037096327 0.010098156 -0.009536903 0.0028742512 0.001487724 -0.004106542 0.005325017 -0.0022440525 0.008313835 0.005720648 -0.009587786 0.012769877 -0.012406067 0.0026144176 0.0029946996 -0.0058765896 -0.010378756 0.00059337734 -0.007961596 0.0042469325 -0.014377132 -0.0067308573 -0.006288064 0.013074348 -0.011392811 0.0003612651 -0.0046230787 0.004223653 0.012163296 -0.0011597802 -0.013131335 0.00023799871 0.009089886 0.005255518 7.303721e-05 0.007367516 0.004094757 -0.011429649 0.008358571 -0.00638573 0.0026431228 0.0064569702 0.0060301777 -0.0119504705 0.010813528 0.009334771 0.0152032 -0.01817443 0.011731187 0.0024484922 0.00029234064 0.01537725 -0.0048801326 0.005137743 -0.0044783917 -0.00290738 0.0012842846 -0.007947688 -0.006096488 0.0008204036 -0.004785592 -0.0137278475 0.016322399 0.006918328 0.0025413665 0.0012778334 0.009068608 0.00579947 0.008752686 0.0010881493 0.0028814184 0.0050273184 -0.0021606693 0.010847086 0.008886733 0.012233254 -0.001818255 0.01054126 -0.0078043076
but 0.0010771393 0.0003993661 -0.0023278482 0.0012092594 -0.00077046966 -0.015951606 0.006396546 0.024663525 -0.010705857 -0.013700597 -0.007193285 -0.0015798272 -0.013100143 0.013013558 0.0028055944 -0.00035713898 0.0027314979 -0.009592835 0.0029449516 -0.007915523 -0.0052201967 0.0005248867 0.0064781723 0.0005335031 0.0053203944 -0.0016421705 3.5780726e-05 -0.00683227 -0.006283743 0.009934483 0.011806623 -0.009983314 0.0020386137 -0.016713526 -0.0037693796 0.012886721 -0.0059580696 0.0015661065 0.0013950798 -0.011035967 -0.0071179196 -0.00819039 -0.0040680887 0.003929233 0.0137172 -0.00059045065 -0.0067278086 -0.0010101245 -0.0028634758 0.0022239804 0.0009537904 0.002957257 -0.0062527778 -0.005941649 -0.001661841 0.0069444184 -0.0027195474 -0.00645535 -0.007914994 -0.0019130494 -0.009025612 -0.0032932637 -0.0009421414 0.008280317 -0.0066600344 0.01010014 0.002687391 0.003664409 -0.0060632275 0.0073854327 0.003495378 0.0013698826 -0.00226246 3.6348014e-05 0.017360168 -0.0028589894 -0.0042964853 -0.0013153373 0.0037572864 -0.0014521757 0.0032542006 -0.008071872 0.001555809 -0.00084590254 0.0063181734 0.00025332588 0.0040025045 0.0028748575 0.015426068 0.0079273535 0.0021434485 -0.0073517836 0.00782187 -0.005566818 0.0010124785 0.007861025 -0.0019929963 -0.011603945 0.010440421 -0.0038385396
is -0.005200211 -0.00018992345 -0.0027713852 -0.0049378136 -0.0027143015 -0.01462659 -0.0051579843 0.024151713 0.0027329156 -0.0074318144 -0.000848438 -0.015697006 0.004440199 0.011430634 0.0032125148 -0.009216353 0.0011925538 0.0014487755 -0.0033218376 -0.009831627 0.011048125 0.0058737826 -0.000935685 0.0022679362 -0.004759876 -0.0047212886 0.0008225903 -0.010342803 -0.004860367 -0.0006342237 -0.0026088129 -0.0022485645 0.008840753 -0.012452049 -0.008958893 0.012742072 -0.0020412514 -0.011171919 -0.0036154517 -0.0067338776 0.010007981 -0.0042973026 0.0068332804 -0.00983753 0.008406684 0.0040090256 -0.003158451 -0.006434568 0.004804974 0.0022922675 -0.00622447 -0.012677086 0.0005970347 -0.0008719084 0.005958374 0.0025898542 0.01052601 0.0011952798 0.0021321648 -0.008217417 0.0027573984 -0.000678965 0.003962704 0.0012458015 -0.013431321 0.01669439 -0.0010378971 0.008341095 -0.014686686 0.009834241 0.0076826834 0.00049411546 0.012477776 -0.0008003068 0.014459589 0.011813252 0.00037239675 -0.0006054692 -0.013827398 0.009176731 -0.008147366 0.0023780346 -0.008354846 0.016515963 0.0058334903 0.0002111235 0.004026445 0.014504762 0.008646247 0.008280544 0.0069482336 -0.00023576494 0.006242962 -0.0033651092 0.0065602944 0.013638989 -0.0069670533 -0.0071497094 -0.0019536552 0.0038154155
what 0.0055983644 -0.0037237345 0.0069835368 -0.00020822947 -0.007157563 -0.009048032 0.00049103325 0.006136674 -0.0035329785 -0.008167084 0.0034473934 0.0035465404 -0.0037641374 0.0055943606 0.00090923184 -0.002243843 -0.004210081 -0.00091271265 0.0036545373 -0.0023154381 0.007744829 0.004612012 0.007764305 -0.009988758 -0.0027514794 -0.004563929 0.0023654036 0.0071425904 -0.006944338 0.0016681581 0.009193974 0.0010386913 0.0030793622 -0.011750578 0.008593868 -0.0026264403 -0.0049469983 -0.008148208 -0.009390389 -0.008244072 -0.007700519 -0.0024685317 -0.0047790906 -0.0026174888 0.008912641 0.001760189 -0.0010680114 -0.0039507463 0.012461697 0.0025567762 0.0063418318 0.0048759053 -0.01026931 -0.008580881 0.007291346 0.0054425905 0.0009628137 0.004251963 -0.008663003 -0.0055854814 -0.008138589 0.007491375 -0.0010016904 -0.0064575924 -0.010914485 0.011738574 -0.0011305852 -0.0016608819 -0.007338966 0.002612273 -0.0048280894 -0.0009716472 0.008244115 0.0008171125 0.0012521037 0.004342231 0.005890031 -0.008453921 -0.01081667 0.0058954773 -0.012903489 0.0008200313 -0.013922123 0.014151094 -0.006218796 -0.0076108943 -0.0003966467 0.004660046 0.012068526 0.010310667 0.0047593354 0.0041770223 0.005382474 0.000111557514 0.0009905625 0.0029140103 0.0040307348 0.005708264 -0.0030338175 -0.011167796
up 0.0024892662 0.013043564 -0.00561058 -0.00034487882 -0.0025857843 -0.0012676915 0.012017611 0.011892478 0.0021888344 0.0032929133 0.0017385698 -0.014905824 0.0005917868 0.0010670463 -0.00020857072 0.0034530018 0.0021401735 0.007062951 -0.0009920432 -0.010466606 -0.0009787274 -0.0072793528 -0.006299001 0.0021163474 -0.007971085 0.0043485 -0.0025830024 -0.007922366 -0.006291674 -0.0051733293 -0.0038634876 -0.0010874063 0.012667419 -0.012751815 -0.0059484937 0.013668122 0.010601904 0.0068290904 -0.013349331 -0.0005717689 -0.0046850825 0.0027207618 0.0048664953 -0.0036175016 0.010438792 -0.009988021 0.0011167038 0.0016698582 0.009098421 0.008430001 -0.00076382345 -0.0010764921 -0.0066086864 -0.005507412 -0.00026478415 -0.006201974 0.0031549388 0.00052539393 0.0030914121 -0.005830306 -0.0021998233 -0.0038776463 -0.003649604 0.0008709327 -0.0012608537 0.0015687122 -4.966076e-05 0.013799727 -0.008109636 0.0014461563 0.005732842 0.0027302655 0.004701731 0.0086391065 0.013468175 0.0052452595 0.0040174983 -0.0014951039 0.004581502 0.0045091263 -0.0101479385 -0.005697165 -0.006293189 -0.0010505922 0.0010834159 -0.010441678 -0.0005209351 0.009942903 0.008365361 0.0048386184 -0.0031604148 0.0051759966 0.0060812132 0.0034478998 0.015667534 0.0056843823 0.008416711 0.0057557668 -0.0001338992 -0.0025780103
did 0.000222046 -0.0054185567 0.0067640957 -0.0050858855 -0.001377261 -0.0073404186 0.009853817 0.01074536 -0.003151631 -0.0052116043 -0.0039969897 -0.006063224 -0.006962737 -0.002369668 0.0018528845 0.003279108 0.0043738303 0.005000914 0.0006147765 -0.010814796 -0.006522226 0.0067622666 0.0095239505 -0.0080124475 0.0037261387 0.010547757 -0.01006588 -0.0035672218 -0.011080549 0.0037037325 -0.0001464779 0.0015166525 0.011127729 -0.012535802 -0.0103813885 0.0053391894 -0.007285156 -0.0110750245 -0.011616034 -0.0043849573 0.0002461019 -0.0022295231 -0.0022578766 0.009252974 0.011443649 -0.007737465 0.005989906 -0.010992793 0.00087165565 0.0044285734 0.0012624977 -0.007155956 0.00022887159 0.00171025 -0.011470567 -0.0027821108 -0.005376792 0.0034892 -0.004311569 -0.006731836 0.0056710537 0.00069515855 0.003461462 0.006473432 -0.00819419 0.012473162 -0.0065210266 0.00047562883 -0.012227722 0.004290954 -0.0087771965 0.010226196 0.009024129 -0.0075699775 0.010189371 0.0077502565 -0.0069135246 0.0054810545 -0.010205731 0.008895184 0.0014670996 -2.126807e-05 -0.012987546 0.0038125096 -0.0017448012 0.0002231931 0.009375629 0.0017966542 -0.00479475 -0.008049889 0.0032462312 0.0027338 0.000524745 -0.0021384489 0.014098055 0.0030990236 0.007753531 0.0015932576 -0.0066488474 -0.0029528234
at -0.01053622 -0.003415402 -0.0017684633 0.006675394 0.0018107211 0.0008320196 2.2107146e-05 0.007517254 0.00033684424 -0.001119717 -0.003216363 -0.009693818 -0.008800112 0.006857119 -0.0051173717 -0.010875374 -0.0054871314 0.005423371 0.003644097 -0.00410428 0.011483291 -0.0059083104 0.007872957 -0.00016045269 0.004699033 -0.001731265 0.003829099 -0.006935423 0.0040101055 0.0076292157 0.004716387 0.0039556664 0.009588306 -0.0047488315 0.0057836003 0.008238465 -0.00025600186 0.004389555 0.001126264 -0.008748232 0.0040575187 -0.0045399717 0.0036083607 -0.0052650566 -0.0003294713 -0.0026332745 0.00032936336 -0.009715711 0.010986425 -0.00023331208 0.0076881256 -0.0022295644 0.0064315023 -0.0032288162 -0.00638913 0.0063005122 0.0007950209 0.005458425 -0.011149027 0.00343462 -0.0005419765 -9.864053e-06 0.0038623225 -0.0010149237 -0.01022845 -0.0019940173 0.0040637255 0.010822824 -0.013019363 0.014304582 0.0019574685 -0.0036113826 0.003818573 0.0033698895 -0.0012120376 0.0037407435 0.00620899 0.0071839863 0.0017916891 0.0033890295 -0.0075423205 -0.005868898 0.0023390828 -0.0004592746 -0.0036861892 -0.0042234324 0.007388548 0.00039398007 0.008886363 0.0034894752 0.001946887 -0.0065923375 -0.007422525 0.0036071893 -0.0015147504 0.009821937 -0.0009053838 -0.01277854 -0.0045886957 0.0062734853
you -0.0041183345 0.009266868 -0.0080337385 -0.009243644 -0.00281721 -0.00580403 -0.005190296 0.0011185306 -0.011686093 -0.003299918 0.005183982 -0.014293682 -0.007476773 0.0036743302 0.0053203986 -0.010245317 0.010896794 -0.010641765 0.0046284827 0.00010398598 0.0067872433 0.0072754817 0.011328084 0.0008000467 -0.008303395 0.0069561694 -0.01304564 -0.006586896 0.003323633 -0.0074363393 -0.0018600463 -0.004298182 0.0055404007 9.4149305e-05 0.000712522 0.009645692 -0.001607824 0.001850216 -0.009902067 -0.0064458884 -0.006141251 -0.003474008 0.0036824238 0.004773554 -0.0015818157 6.561367e-05 0.0046872566 -0.008094127 -0.0011682129 0.0016676766 -0.0030807536 0.004437695 0.0073890155 0.010229102 0.006704891 -0.005809397 0.0027117657 -0.008035664 -0.009106518 -0.007939909 0.003579264 0.00041424678 -0.005719726 0.009181918 -0.0040077535 0.0058506937 -0.0020022981 0.0012212452 -0.008581998 0.011881014 0.0007652079 -0.00398094 0.009010155 0.00034163755 0.0019434704 0.009311669 -0.0033724327 0.008398357 -0.0074340296 -0.007996257 -0.008454046 -0.0035843046 -0.00563061 0.003961971 0.0032761635 0.0045866347 -0.00093316677 0.009381857 0.002680809 0.0021364184 0.0036718778 -0.0008838801 -0.004202493 -0.0043648584 0.0069649597 0.005103654 -0.0076976633 0.0033224565 -0.0011962064 -0.004309838
could -0.0076130014 -0.0013060095 -0.0035249372 -0.009945176 0.0015446377 -0.015093385 -0.0025645816 0.003981253 0.007249134 -0.0045085964 -0.010560476 -0.0010697955 -0.0104033975 0.0005964916 0.0045841984 -0.008889428 -0.005474612 -0.0091723455 0.007318366 -0.00095993804 0.0054609347 0.0035431015 0.0074238065 -0.006665264 0.008334896 0.008147707 -0.00079893443 0.008105512 -0.011334776 0.0014291122 0.013373477 -0.0018945519 -0.0043285633 -0.007926762 -0.0044453363 0.0023858654 -0.0008564631 0.0045963656 -0.0034418497 -0.001146439 -0.0019705123 0.0042244615 -0.007585166 -0.009415653 -0.0009092243 -0.009455402 -0.008454329 -0.0023201006 0.005331418 0.004338494 0.006747727 -0.006040412 0.001972698 0.0011384349 0.0051011667 0.011116045 0.0012912229 0.0008495965 -0.01076471 -0.003703737 -0.006902586 0.0003472063 -0.0034890743 -0.0027249851 -0.0039535374 0.008893705 -0.007483208 0.0066272942 -0.0012884586 0.008793191 -0.0045972234 0.010964684 0.014221477 -0.00058540684 0.0061091376 -0.007584545 -0.0041230973 0.00075403 0.0006241216 -0.0005959767 -0.013185087 0.006120042 -0.012696929 0.0150658 0.003495139 -0.008064321 0.0038260736 0.014020073 -0.0010635576 -0.005183568 0.01474324 0.00340669 0.010480666 -0.010040042 0.005719704 0.010816578 0.000593313 -0.00479948 -0.006233429 -0.007063726
were -0.009182062 0.011758066 -0.0003391152 -0.008436262 0.010079769 -0.009923323 0.0008046213 0.010123684 -5.8386795e-05 -0.0075937915 -0.0027035442 -0.009045903 0.006478934 0.009152696 0.0028715327 -0.007887955 0.006216344 -0.0012737986 -0.0064164097 -0.015307217 -0.0019521627 0.0034621868 -0.0049538007 -0.0075927856 0.0066670007 -0.0022623306 0.0033056512 -0.00029614178 -0.008120397 -0.0045248144 0.0040255864 0.00379173 -0.0037745144 -0.010588739 -0.0083344085 0.011392544 -0.0013275426 0.0015925787 -0.0046393317 -0.012114438 0.0005949095 -0.0033795864 0.0026223452 -0.008907227 -0.003589728 -0.0083778305 -2.5533602e-05 -0.006431665 0.0036749053 0.0066259634 0.0061224187 -0.0018297778 -0.003063377 0.001536136 -0.008142777 -0.0035912888 0.011777165 -0.0045029293 -0.013806915 0.004630323 0.008646008 0.000109507164 0.0036001597 -0.0024316004 -0.009363227 -0.0029014933 -0.0065502618 -0.004441699 -0.012071344 0.012888395 0.0077571515 -0.0004083648 0.004457239 0.007338776 0.0060155313 -0.003430898 0.0033802853 0.00266985 -0.0068251886 -0.0054237875 0.005576825 0.008026017 -0.013640005 0.00038562278 -0.00062802143 -0.00011353532 -0.0073599853 0.015190024 -0.0007714097 0.0059260298 0.014527752 0.002562031 0.005033206 -0.0027740984 -0.0026454427 0.0041191396 0.0008756083 -0.012791588 0.007616406 -0.008798277
as 0.0027273833 -0.0017702059 -0.008230691 -0.008827861 0.008543421 -0.012096473 0.0074336343 0.009410668 0.0068848007 0.004552732 0.007425132 0.00241145 -0.010107006 -0.007360658 -0.0037042394 -0.0025539945 0.008276917 0.00097425136 -0.0023005651 -0.0045376183 -0.0022266225 -0.00559067 0.007868115 -0.012472579 -0.00044104515 -0.003712944 0.0026629947 -0.0046779984 0.0001372228 -0.0055210018 0.013899648 -0.0065258327 0.0062820935 -0.002100845 0.00739774 -0.00071481743 -0.003505574 -0.008880191 0.0033757898 -0.009601452 0.006833001 -0.0045955614 0.006294857 -0.006062407 0.0031732912 -0.0017641865 -0.011555204 0.006198199 0.00061017286 0.008683289 0.0017614532 0.00054266833 0.002075024 0.009779246 -0.011091637 0.011432815 0.011867087 0.00067992 -8.2505634e-05 0.0048828875 0.0041955067 -0.002843555 0.0039669075 0.0019902417 -0.00024734435 0.0140974615 -0.0061839186 0.0047655622 -0.0149984 0.002795915 -0.010840592 0.0042540366 0.0027722449 -0.0015417516 0.011378919 -0.0062420713 0.0017710506 -0.0018623577 -0.0069822893 -0.007899901 -0.012316566 0.008749559 -0.01253354 0.01102829 -0.0060055335 -0.0022021497 0.0036322784 -0.0027627554 -0.0011514243 -0.006445233 -0.004133043 -0.0033962803 -0.0025696969 0.00028563786 0.0063478975 -0.0045303665 -0.0022316184 -0.0057288115 -0.005800316 -0.007849434
all -0.005053583 -0.00515831 -0.0070449295 -0.0074553224 0.005798591 -0.014258644 -0.0016775406 0.017293943 0.0046466896 -0.009178627 0.0041876067 -0.013743297 -0.0021463125 0.008908634 -0.00084810006 0.0075865807 0.0027406132 0.0026389307 0.0066609844 -0.017708117 -0.0046434617 -0.0062705344 0.0019639719 -0.009643866 -0.0012562096 -0.0067394977 -0.004017001 -0.0013880266 0.003951212 -0.008382865 0.0010320682 0.004998505 0.011431189 -0.006958542 -0.0006707951 -0.0015387636 0.0017582397 -0.010536797 -0.010606494 -0.0033533273 0.0017830663 0.001887688 -0.010799604 0.001691002 0.0046277465 -0.006928782 -0.003048213 0.003503011 -0.0039863065 0.0027230328 0.005480974 -0.0023881462 0.0025102606 0.009022278 0.004127778 0.0061681294 0.010718712 -0.008091663 0.003302247 0.0049568736 -0.0057274736 -0.0038604338 0.0077787535 0.0069172117 -0.01483358 0.0066115777 0.0010787302 0.005508213 0.0011587841 -0.002994254 0.008283414 -0.008061089 0.01040762 0.009021737 0.0010091481 -0.007910539 0.0070230556 -0.008116734 -0.011526627 -0.0012331749 -0.010702163 0.009146527 0.0031152936 0.006595113 0.006227684 0.008914252 0.0061901505 0.009765845 0.0099222995 0.007462419 0.009755047 0.007963343 -0.0067947484 0.008963736 0.01491741 0.012878857 -0.0071719103 -0.006329063 0.0002862521 0.0028577526
like -0.010322746 0.0024313794 0.00696942 0.009491381 -0.0009633785 -0.0037159026 0.008112067 0.0068814033 -0.00013389895 -0.011778077 -0.0011480425 -0.00021363127 0.0025644393 -0.0077400138 -0.003739553 0.0016342341 0.0040112613 -0.0067702504 0.005664087 -0.004160634 -0.006911961 0.010661376 -0.0049264617 -0.0051125786 0.008679475 0.002095939 -0.009597937 0.0005196882 -0.0062453104 -0.006369966 -0.0043086293 0.0040759486 -0.006897485 -0.00034332095 -0.0067554456 0.009274021 -0.003486504 -0.0075971563 0.003936099 -0.012822614 0.0028297324 -0.005111146 -0.0074524404 -0.0077229533 0.009498798 -0.0058457106 0.0019678092 -0.011971546 0.004327482 -0.00015829041 -0.0046324315 -0.006341847 -0.008962295 -0.0028734233 -0.0047432836 -0.00011907247 -0.0026235345 -0.009692803 0.0019964862 -0.00044823147 0.0061974763 0.0034598475 0.009745619 -0.0024409033 -0.013046766 0.005957181 -0.007729965 0.009790278 0.0036234376 0.004111592 0.006405818 0.009494265 0.00766767 0.0050249933 0.013184473 0.0024462484 -0.007824893 -0.0077434042 -0.004468135 -0.0010976301 0.005580995 -0.009148316 -0.0067247567 0.014107792 -0.0030204454 -0.009899441 0.0027561719 -0.0010291331 -0.0016484779 -0.0052624987 0.004462431 0.008572318 0.004566166 0.007936097 0.014442083 0.007340555 -0.004624501 0.00497901 -0.009151228 -0.0060471785
love 0.004903069 0.011114554 -0.0041382494 -0.008297355 0.010676943 -0.011796411 -0.0014380711 0.019451734 0.0025375807 0.0005928512 -0.0040762858 0.0017672192 0.0057597454 0.009553793 0.011212851 -0.007733061 0.004476564 -0.0044681258 0.0061315135 -0.001031907 0.0063950955 0.0055986545 0.010325967 0.0030419414 -0.0014819334 -0.0069012023 -0.007724414 0.008284234 -0.008070301 0.0014976407 0.009836331 -0.008033827 0.011220243 -0.0046290276 0.0005840881 0.013848296 0.0026293078 -0.002096293 -0.0129696075 0.004276087 -0.0077528805 0.0042816107 0.0041507427 -0.00025346212 -0.0040928177 0.007413721 -0.0050733383 0.0022226085 0.0004647476 -0.0024467094 0.0017648557 -0.01321535 -0.0068822606 -0.008528919 0.0020675978 0.0038192903 0.002962059 0.0047396044 -0.007149633 -0.006209322 0.0030110981 -0.0053766025 0.0021407432 0.010939465 -0.006664978 0.01276789 0.0062405695 0.001775139 -0.012078659 0.0142255975 -2.0165466e-05 0.0009946887 0.006157156 -0.005668816 0.009187542 -0.0011932763 0.0049869963 -0.0037871834 -0.004305219 0.0030943346 -0.012222974 -0.0023535276 -0.014464031 0.008552596 -0.00020338998 0.0013599228 0.0020522717 0.006959788 0.007725713 0.00076012546 0.012012321 -0.0011376422 -0.0046361694 -0.005482467 -0.002046912 -0.004063514 0.0042067356 0.001053149 -0.0053110295 -0.011373694
from -0.008670083 0.0076774317 -0.0076910625 0.0053870613 0.008500682 -0.0013029609 -0.005242487 0.014564725 -0.008374383 0.0059578563 -0.007123772 -0.008883301 0.0029134818 0.0016386628 0.0071837236 -0.0060476945 0.0083992295 -0.012454749 0.0059636934 -0.0114059 -0.004279315 0.0011779772 0.0019735657 -0.0037178006 -0.0032998896 -0.007902374 -0.013080528 -0.007678648 -0.011538635 -0.0039981627 0.013833922 -0.0028422165 -0.004980218 -0.011300591 0.0020096598 0.0024753816 -0.0005743118 -0.007112155 0.002691823 -0.0131978635 -0.0055834074 0.003599675 -0.008232829 0.0021735483 0.0038672227 0.0078121885 0.0007470747 -0.00086060725 0.005570208 0.0046757734 0.0038938192 -0.0074355616 0.00385412 0.0068684947 0.006104456 0.002287572 0.0019009061 0.00597261 -0.013272607 0.00019003275 -0.006511061 0.0049892697 -0.0077235964 0.004445371 0.0035101885 0.0039827796 -0.0072678262 -0.0032320244 -0.003357986 -0.0007637025 0.00456164 -5.5916622e-05 0.012447026 -0.0012590376 -0.00100875 -0.003855957 0.0014986246 -0.003936405 0.0030717084 -0.0039931703 -0.010329321 0.001485979 -0.010116108 -0.001581125 -0.0074057933 -0.0028949834 0.0014995832 0.00984918 0.011824856 0.008064226 0.011442168 0.0019587127 -0.0052507226 0.008961805 0.0067022587 0.008412247 0.00046481722 0.0028094633 0.0061635063 -0.00883721
so -0.0050484696 0.002810326 0.0033104566 -0.0094937505 0.007042686 -0.0032885568 0.0018647797 0.0064371657 -0.010236094 0.0049168416 -0.010957878 -0.0131300595 0.002364096 -0.0064137075 -0.0016513607 -0.00382714 0.0008610671 -0.009110034 0.0040845275 -0.00786619 0.004716756 -0.00038993475 0.010047039 -0.0119942315 0.0045811916 -0.003766918 -0.0027152018 -0.00773619 -0.005146437 -0.0059843087 0.0004661903 0.009089787 0.0048531145 -0.003456324 -0.00746362 0.009949212 -0.0074214027 -0.0045905006 -0.009391047 -0.011000642 0.0039462214 -0.0069564674 0.0012076637 0.0040852404 -0.0032542467 -0.0034788055 -0.005779929 -0.012316194 -0.0071793348 0.0033092655 0.0060335826 -0.0038654143 -0.0050434317 0.004332966 -0.00096083747 -0.006938973 0.010015402 0.0073981793 -0.011990171 -8.5811735e-07 0.006278498 -0.0027050306 0.0008537366 -0.003077049 0.001431695 0.012438904 0.0037285383 -0.00034011426 -0.007670703 9.332357e-05 -0.011413013 0.00913364 0.0033904712 -0.0013427346 0.011785803 -0.0072158654 0.006940252 -0.0067664315 -0.008302801 0.004385458 -0.0076135634 -0.0029949595 -0.011101908 0.0016328633 -0.0044968473 -0.0052496544 0.010488278 0.014907397 0.0040670717 0.0009167321 -0.0006832374 0.009425127 -0.004276685 0.005759867 0.015668519 0.00898919 0.0008997139 0.0030172134 0.007646832 -0.00510763
before -0.0020232224 0.009290364 0.0072185206 -0.00011545011 0.004443883 -0.013180309 -0.0072245267 0.0057438724 -0.0078935865 -0.0023335419 -0.006471878 -0.0064288354 0.005450007 0.011917825 0.009724547 0.0009076774 0.00028025056 7.238051e-05 -0.0030635844 -0.018066712 0.0082991235 -0.0075294306 0.006606302 -0.0064922306 -0.0070186965 0.00022491353 -0.011086231 0.0076961787 -0.009673306 -0.008623323 0.009938486 0.0036987725 0.0071487366 -0.0026478898 -0.0053626746 -0.00037106988 0.002943309 0.0058831316 -0.008699831 -0.007062687 0.0036970875 0.0031753532 -0.007349838 -0.004747104 0.00038928917 -0.00034681382 0.002536667 0.0030300796 -0.0060971184 0.009638939 -0.0011633058 -0.0069814683 -0.0090493765 -0.0050070235 0.006994449 0.0060092 -0.0052293013 0.0022636733 -0.01128615 -0.008131402 0.00409631 0.0025211887 0.0025579117 0.00993215 0.0012915138 0.00062378735 0.0038568664 0.0070405244 -0.003352705 0.012560613 -0.008315182 -0.0010403048 0.0052976212 0.005912825 0.0040770257 0.0095205065 -0.0041008038 -0.008422737 -0.010052756 -0.0046245176 0.0056326212 -0.004820498 -0.009503519 0.014035844 -0.00931681 0.001013271 0.006630524 -0.0018299363 0.004274201 -0.001020888 0.010663266 -0.003178104 -0.006021559 0.009898691 0.002077491 0.011081092 -0.006719488 0.0041121044 -0.0028802566 -0.009226921
there -0.0032621166 -0.0002508152 -0.00080258795 -0.0012718991 -0.0046777134 -0.00887046 -0.0015317324 0.01617619 0.0037547757 -0.0030936864 -0.00681963 0.00047095213 -0.010683357 0.0033478003 0.00565666 -0.0031238724 -0.0020473546 -0.010160486 -0.008482337 -0.00029614347 0.0045694318 0.00060107117 0.01236709 -0.010595848 -0.00042089383 0.00083239743 -0.0118452255 -0.009747009 0.005134784 -0.0031878676 -0.004509059 0.0072751455 -0.0042420034 -0.0073524527 0.00055723736 0.0003243931 -0.0070859212 -0.0059073176 -0.01141233 -0.0021664647 -0.0031841374 -0.00281329 0.0019556927 -0.0025273147 0.011422129 0.005688363 -0.002805223 -0.0026853452 0.002987512 0.008635333 0.010091071 -0.005338658 -0.0017835982 -0.0023288238 -0.0015330375 -0.0042188126 0.0005068667 -0.008961708 -0.0028365254 0.0021598695 0.0038821877 -0.0024730803 0.0068176603 -0.0061713913 0.0059853345 0.004913455 0.003437989 0.0079266215 -0.0042113895 0.0060576973 0.00034010262 -0.008674458 0.00026655596 -0.0030189236 -0.0055295364 0.0047571845 0.005458047 -0.0015199548 0.005022752 -0.0014794477 -0.003475777 0.005871225 -0.012300561 -0.0022371022 0.005847032 -0.0072918045 0.00908763 0.010001239 -0.0044307606 0.009403627 0.010505944 -0.00558666 -0.0079688225 -0.008973427 0.009174771 0.009025649 -0.0007658304 -0.0010244787 -0.008083675 -0.006253865
this 0.0017573468 -0.0057623577 -0.007833865 0.0009783482 -0.006352952 -0.014822194 0.007094073 0.02059873 -0.010603901 0.0046850215 0.006467088 -0.002273695 -0.00697314 0.0123065645 -0.0055727297 -0.0059280964 0.005735174 -0.010474614 -0.010213301 -0.008004792 0.009745552 -0.0038328234 -0.000679942 0.00087528024 -0.0007521024 -0.007025756 0.0010547676 -0.0042292867 0.00048901385 0.0037416774 0.013897576 0.0078010815 0.00992243 -0.014229492 -0.00051399536 0.00481626 0.0019264292 0.0058686296 0.001443885 -0.014818167 0.011882452 -0.0051358645 -0.0006910598 0.00494764 -0.0025833012 -0.0023674376 -0.0024205523 0.0039131716 0.007301645 0.0007135457 -0.006793655 -0.00886759 0.0084449705 -0.0085800635 0.0066557503 0.0029871224 0.0021632111 0.0091737285 0.0043006083 0.009332137 0.009292983 -0.009685486 0.009201543 -0.007999044 -0.0137897115 -0.0023475653 0.0037819697 0.012535438 -0.013357597 0.0023490267 -0.0042998292 -0.0028950146 0.0036189663 0.00428575 0.009447852 -0.0013737584 -0.0030101808 -0.0015250236 -0.0068704537 0.0035694768 0.0050273114 0.008260365 -0.01326953 0.00062175846 -0.011638306 -0.0071962588 0.004777088 0.0006606638 0.0069082812 0.010356829 0.0092453575 0.0029078072 0.009909141 0.0065250266 0.0065202024 -0.0020515993 0.0011496099 0.004034965 0.0081579015 -0.00573456
her 0.0073417025 0.005303772 0.0064746956 -0.00578663 0.0062775444 -0.0068072244 -0.007543567 0.015852688 -0.011866641 -0.009494142 0.00017652186 0.0030670257 -0.0044083963 0.0092586605 0.0069886385 0.0022742678 -0.0029741395 0.002622026 -0.0085315015 -0.013950252 0.0066408464 -0.0070818146 0.008938244 -0.0060944636 -0.0012050258 -0.0059292815 -0.010911017 -0.00402265 0.0057894103 0.0059900153 -0.00542285 -0.007478117 0.0056736944 -0.013808484 0.005381631 0.010980668 -0.008442773 0.0060739843 0.0049101454 -0.0067339656 0.0036476885 -0.009415515 0.0051987753 0.007637123 0.007199686 -0.010745008 0.0018038946 -0.0057738987 0.00039876252 0.008553109 0.0033524712 0.00016685863 -0.0065998114 0.006024697 -0.0062448415 0.002368521 0.009227332 0.003724325 0.002911902 -0.003058678 0.0037965262 0.00767762 -0.0019638392 0.007013416 -0.014492514 0.014827377 0.0052019153 0.010082267 -0.0013872149 0.009117753 -0.0050461018 -0.004896825 0.0021866048 0.00092143053 0.0019322482 -0.0067836405 -0.0056738514 0.009150286 0.00621971 0.00546442 -0.008453345 0.0011153293 -0.013543038 0.012682785 -0.0015541095 0.006352438 -0.0042911535 0.0030557718 0.007427992 0.004821951 -0.0015112567 -0.0060098264 0.0027146067 -0.008922712 0.0125874225 0.00920678 -0.0018804747 -0.008368088 -0.007794783 -0.003126987
than 0.0042708186 0.0027245188 -0.0067283586 0.00889053 -0.0063008056 -0.0015847461 0.008520307 0.012026946 -0.0114593925 0.0031499106 -0.010538061 -0.011445084 0.00729487 -0.006045804 -0.005762086 -0.0066813724 0.006618461 -0.0006190339 -0.005879875 -0.013100234 0.009949095 0.01111916 0.013195211 -0.0015292153 0.0027442721 0.0027723557 -0.00314386 0.003929997 -0.000630265 0.00065628474 0.0011762334 -0.0074888263 0.010503506 -0.011449866 0.001303457 0.0039834855 -0.0025911196 -0.0077127353 -3.4570876e-05 -0.010732273 -0.0056305947 -0.006502691 0.0035836634 0.005846906 0.0018417073 0.0054188413 -0.010735948 -0.007321652 -0.0051766043 -0.0036405756 0.008949522 -0.014011127 -0.0088977115 -0.008838786 0.0066049467 0.00024317991 0.0041643716 -0.0066918912 -0.007189582 0.0011088151 -0.002250418 -0.0073589906 -0.0047618514 0.0037597164 -0.014772234 0.006972751 -0.0005898252 0.013055356 -0.006566282 0.011004705 -0.008748744 -0.006230298 0.010161062 0.00014737758 -7.7249955e-05 -0.0008095229 0.009578373 -0.008465419 -0.006995576 0.00037633794 -0.0046590907 0.009983291 -0.0070901145 -0.0010573328 -0.009844256 -0.01107482 -0.006844923 -1.02201975e-05 -0.0012095858 -0.0001207644 0.004815783 -0.0031399375 0.0029763482 0.0039642416 0.016290655 -0.0011530316 0.0069281515 0.0043783206 -0.003219571 -0.008981106
when -0.0055872835 -0.0044352645 0.007574914 0.009487663 0.010298381 -0.014542877 0.006975132 0.014321064 0.003404818 -0.010906537 -0.0021592327 -0.01209591 -0.01100127 0.004502169 0.0117536895 0.005181763 -0.004484824 0.00012414588 -0.0038260457 0.0018980266 -0.008057006 0.010962726 -0.003817005 -0.009095386 0.00061172474 0.0005124254 -0.01268472 -0.0013364218 -0.0026861322 -0.0059840586 0.009406563 0.002398849 0.010615939 0.0029676857 -0.007970868 0.008930737 0.0067336243 0.0034402811 0.0025076326 -0.008992704 0.0058494974 -0.0019392149 -0.0007738438 -0.0065755704 0.0044994806 0.0037568111 -0.011827766 0.0064042984 0.0052830237 0.0018611448 -0.0020615838 -0.003440628 0.005779238 0.005556618 -0.008389419 0.010340951 0.002069195 -0.008478861 0.0049063335 0.0058601364 0.003799347 0.008469539 -0.006620075 -0.004833642 -0.0063183648 0.0006543614 -0.00025658743 0.0034967838 -0.013615753 0.005859751 0.0010863489 0.00032552792 0.008912038 0.0010073152 0.010182964 -0.0009961479 0.009118478 -0.0009196282 0.00037729452 -0.004216533 0.002607595 0.0031887768 -0.0037753931 0.014050999 -0.009448801 0.008984351 0.0014374326 0.0027623605 6.589162e-05 -0.007853215 0.0020622725 0.004234311 0.0069260937 0.009108891 -0.002947675 0.0120889805 -0.007276999 0.0011207489 0.008588797 -0.0036036998
problem -0.010484855 -0.0057712477 0.0024772885 -0.00081629306 -0.007393055 -0.0037585464 0.0043913983 0.015148046 0.0016541774 0.0005453132 -0.012436686 -0.00040152355 0.0018390625 -0.005544361 -0.000355008 -0.0013091532 0.002364932 -0.0034635682 -0.005687794 -0.009516755 0.00563104 0.0006205662 0.0038992763 -0.00033700105 -0.005275694 -0.0065905107 0.004599149 -0.010505413 -0.0050966227 -0.0008885511 -0.003497025 0.00093678926 0.010501586 -0.0067862757 0.006728704 0.0050088307 -0.0046356856 -0.00453066 -0.0036590844 0.0013166742 0.008922307 0.0025421053 -0.0069524553 -0.007046581 0.009128015 0.00088511355 0.0022215173 -0.0021194695 0.010625304 -0.006641189 0.011453105 -0.012588554 -0.0019620536 0.007180911 -0.011870996 0.0070790416 -0.0039289175 -0.007431209 -0.0021053802 0.0026503305 -0.00265786 0.008282173 -0.0058588022 0.0015344681 0.0037470064 0.0077675236 -0.005518149 0.008090629 -0.010999794 0.005068597 0.0010808051 0.009056087 0.011846638 -0.005535677 0.014462374 -0.003810809 0.008277391 -0.007174787 -0.0109262895 -0.0015428006 -0.012237097 -0.0030742672 -0.0055148914 0.005993822 -0.0118535375 -0.007323888 -0.0067693684 0.005500048 0.009891422 0.0013167922 0.0152156865 -0.00241487 0.008866209 0.006001432 0.015110835 0.0036210567 0.0014196864 -0.00093610113 -0.009371638 0.007662021
will -0.004851638 0.010303716 0.0031581684 0.0027744384 0.0008606692 -0.016405018 0.0033226332 0.012923098 -0.01245761 -0.0065029566 -0.0047771325 -0.010750686 0.001949859 0.0040737046 0.006291954 -0.008024044 -0.003164749 0.0024718482 0.0066459943 -0.0032497835 0.0059395256 -0.0061742426 0.011272392 -0.009590164 -0.008906124 0.009629922 -0.0070974366 -0.010280189 -0.0056467406 0.006353976 0.0010546366 0.0041274917 0.002233411 -0.0007533529 -0.00024265332 -0.0047498457 -0.0028308548 0.0065661143 -0.0012650561 -0.010453096 0.008680171 0.003991174 0.006190285 -4.553095e-05 -0.006372942 -0.005032269 0.0022455694 -0.00911246 0.012347732 -0.007834567 -0.006650913 -0.009471457 0.0059218854 -0.006887281 0.006151939 -0.0071874177 0.0064427415 0.0027590944 -0.004055254 0.010494466 0.0052463682 0.00033307972 0.0061552827 0.0076504326 -0.0017004771 0.014702757 0.00010423336 -0.004209816 -0.010215556 0.002732051 -0.008872314 -0.0005923229 0.0121106 -0.0057346565 0.009330622 0.0059726383 -0.00021258707 0.0017400013 0.0027793644 -0.0071548927 7.554333e-05 0.009246971 -0.007982721 -0.0019956299 -0.010986069 -0.009997476 0.0045521175 0.010766085 0.011351656 -0.00032572588 0.0057856883 0.004430684 -0.009304049 -0.009552112 0.011130515 -0.005260606 -0.0014771043 -0.006807984 0.0066807834 -0.0049685994
paper 0.0074751163 0.003437185 -0.0036071588 -0.0035043776 0.0035231472 -0.01281263 0.009837334 0.020963958 0.0011561792 -0.010636793 -0.008779987 -0.0067101377 -0.0030470567 -0.0032762857 0.010287418 0.0042378344 -0.0006837419 -0.0003629576 0.0049818815 -0.0076926616 0.010021733 -3.873658e-06 -0.0031482794 -0.003740966 -0.009960451 0.011223633 -0.014020885 -0.0024246783 -0.0058412016 0.0038510433 0.009686946 -0.009141663 -0.0019148486 -0.0050032865 0.002573454 0.010487396 -0.00011336153 -0.003369015 -0.011195173 -0.0006792016 -0.0058761886 -0.00077955984 -0.0045697424 -0.0077734175 0.010547592 -0.002349947 -0.013087661 -0.012124981 0.0034353796 -0.005826988 0.0056184707 -0.0013060205 0.0031646255 -0.0048296135 0.0050153886 -0.0059627793 0.010682317 -0.0011422033 -0.006246164 0.004972681 -0.002350795 -0.0040458613 -0.0010487767 -0.005020874 -0.005752858 0.000740445 0.0062222085 -0.0044438825 -0.011218706 -0.004674525 -0.011465329 0.00057491136 -0.0033328005 -0.006484486 0.00809018 0.0003471983 0.0037176947 0.009342361 -0.013121268 0.0055541685 -0.0126529895 0.007073072 0.0022868887 0.015152063 -0.010034123 0.0020480265 -0.0070416504 0.005019153 6.5155444e-05 -0.007182639 0.010586875 0.0060352646 -0.003489633 -0.007952411 0.0112269735 -0.0003221295 -0.0069977464 -0.0076407073 -0.0016925158 0.0070696715
right -0.008556805 0.009789897 0.0070926305 -0.004959438 0.00011425283 -0.00838297 0.004858426 0.008860715 -0.005145044 -0.01151275 0.0041738255 -0.014981405 -0.010684955 0.00353695 0.0045961016 -0.0015237337 0.0030897083 0.00059005275 0.0017037162 -0.00068359723 -0.0024391853 -0.00645669 -0.0051083276 0.0058141034 0.0007922801 -0.004716042 0.002342272 0.0077838213 0.0056846472 -0.0063011656 -0.0015841632 -0.0027823616 -0.0047705555 0.00019821398 0.004562142 -0.0019081027 0.008088914 -0.009711504 0.0037281918 -0.008980443 0.003398862 -0.006632213 0.0025411625 0.007927368 0.0014224743 -0.0065340083 -0.011414707 0.0013950826 0.0066127097 0.008767392 -0.0029450324 -0.0134387445 0.006533741 -0.003917191 0.0020140724 0.010465576 -0.0013945241 0.0013140142 -0.0075124837 -0.0058786045 -0.005648546 0.00017203197 -0.00634584 -0.0009001744 -0.0069501633 0.011600995 0.002796974 0.010009341 -0.0014772136 0.00030806375 -0.006507878 0.010904385 0.010875036 -0.009519459 0.009571831 0.009531203 0.009863119 -0.007286584 -0.004739439 0.0007160041 -0.0006510377 -0.0015726419 -0.00912302 0.011595381 0.005403184 -0.0012426126 -0.0050871833 0.00061329006 -0.0009599317 0.005366558 0.0050058397 -0.0009314663 -0.008482158 -0.0015401628 0.01228498 0.009487506 0.005901861 -0.005275079 0.009536093 -0.00033465636
how -0.00074608624 0.00815057 -0.0056822104 0.006492054 0.01138834 -0.0011230423 0.004926653 0.011786547 -0.003830979 -0.010149536 -0.0002384313 -0.0033387903 -0.008208837 0.0034410595 0.0067441217 -0.00831036 0.0047201873 0.0059384746 -0.008828913 -0.0031857172 -0.00766563 -0.007152766 0.009316526 -0.009318408 -0.0022564258 -0.0070395055 -0.0111384755 -0.0076458445 -0.001555161 0.0021110964 -0.0049909963 -0.008540989 -0.0015283679 -0.0056334175 -0.0071918583 -0.0009791647 0.0044825324 0.0013216331 0.004410717 0.0008201911 0.00021015009 0.00021322211 0.008330976 0.0019585784 0.0041876254 -0.00010366722 -0.011550909 0.0036175344 0.007009166 0.0017172797 0.010237029 -0.008846622 0.002919028 -0.007149259 -0.010732727 0.0039323405 0.0067865024 0.0058571743 -0.011902879 0.004989472 0.0025442697 0.004416537 0.00027424635 0.0063918517 0.0036070577 -0.0044123665 -0.008902929 0.010399639 -0.0053127734 -0.0061898734 -0.005271032 0.0021316577 0.011541336 -0.0021944926 0.002385828 -0.006393442 -0.0072519644 0.0021071017 -0.0027775015 -0.008226588 -0.0019948133 -0.008824698 -0.005953926 0.0084683355 -0.0002967708 0.00719325 0.007183772 0.0028550997 0.008228122 0.0070346645 0.012366142 0.0102950595 0.0055075074 0.0045927386 0.012070035 0.0008326022 -0.004451949 0.006857544 0.0015589407 -0.0060343114
would -0.003337764 -0.0027432884 0.010246526 0.0033408736 0.0061756046 0.00061567087 0.01017779 0.0047519966 -0.008858619 -0.006229757 -0.006028305 -0.015059943 -0.0025915045 -0.0062411316 0.011447542 -0.0050170464 -0.003596925 -0.010175401 -0.003845518 -0.017954666 0.0019626871 0.006431312 -0.0001393537 0.005366322 -0.003031676 -0.006111599 -0.007348726 -0.0039207404 -0.0094478205 -0.009575868 -0.000542176 -0.0023292778 0.007192179 -0.012157648 -0.0061464147 0.0056545534 -0.0005178218 0.0013001258 -0.0046442696 0.00021603813 0.009648134 -0.011196271 0.0029537142 0.005782854 0.0021731344 0.0051520728 -0.008094662 -0.006857452 -0.005581199 0.011639681 -0.00810549 -0.007237247 -0.0006580886 -0.0040327385 0.0070864935 -0.0042540017 -0.0052953693 0.00870527 -0.0122801475 0.0104720425 -0.0038900839 0.0060493993 0.0008748934 -0.0029746846 -0.012017761 -0.001162727 0.007832784 0.010512336 -0.005075755 0.010284349 0.0024961508 0.005097835 0.0065434463 -0.010309807 0.013713548 -0.006814349 -0.0023661898 0.0021736973 0.0025213002 -0.009667941 -0.0018557934 0.0064539704 -0.013095263 0.014752005 -0.0069006993 0.008758903 -0.0058887554 0.011911913 0.013515928 -0.00803092 0.004885012 -0.0064559286 0.008770377 0.009645883 -4.978017e-05 0.004087525 -0.00060799095 -0.010332713 0.0010923301 -0.01123675
do 0.00089971285 -0.005788799 0.0064896382 0.0076152403 -0.00093108625 -0.008443029 -0.0082186265 0.012343424 0.0010509238 0.006712478 0.0016403545 -0.0068875607 0.0022374608 0.010094352 0.010563498 0.006572469 -0.006480057 -0.009305627 0.007078497 -0.01392931 0.004243067 0.008945532 -0.001092982 0.0052043446 -0.008939213 0.007245012 0.0022970128 0.0027570473 -0.009961944 0.009540774 0.011054298 -0.0020162333 0.0056825085 0.0028264015 -0.0028781332 0.0087929275 -0.003322924 -0.0029229107 -0.0033827915 -0.0075875693 0.0005140873 -0.010184556 0.0031098786 0.009091561 0.0069268467 0.0051420582 -0.0068464978 0.0031199271 -0.0047962144 -0.0036054912 0.01098074 0.0033279127 -0.0052842596 -0.0056412667 0.0054661185 0.004494594 0.008561621 -0.007059439 -0.003922778 -0.00031300544 -8.0297184e-05 0.0026425747 -0.005801181 0.0053489157 -0.006366202 0.012280188 3.8551243e-05 0.012361278 -0.0049717114 0.008182695 -0.008714756 -0.008222923 0.0026550977 -0.0025405912 0.013104954 0.0054920022 -0.005278104 0.008065999 -0.0016414794 -0.009819807 0.0032166464 -0.0019327386 -0.0128984675 0.012808524 0.0058193193 0.007829666 0.0009969091 0.011557033 0.0084727565 -0.006051289 0.012849918 -0.0023926585 -0.009294569 0.008562724 -0.0005593535 0.010747768 -0.0067515452 0.007332442 -0.0055085835 0.0029649653
no 0.007941949 0.006330771 -0.0010119834 -0.0050438466 -0.00828124 -0.0009681196 0.008920879 0.003510544 0.0037895546 0.0045630946 -0.01083838 -0.0025936393 -0.008654197 -0.0027132812 0.002260114 -0.008389193 -0.001770842 -0.009381134 -0.0071666893 -0.014291205 0.010931539 0.009301066 0.002128763 -0.0045414697 0.0053358306 0.0023967419 -0.012436109 -0.0076965485 -0.0010025088 0.008300053 0.0064225933 0.009096039 0.008345423 -0.003651206 0.0076356367 0.012742769 0.008868581 0.0072843507 -0.011617775 -0.000102415215 -0.006377411 -0.010072611 -0.00924606 0.0030821068 0.002479684 -0.007832005 0.0032950884 0.0058809305 0.0062789456 0.009681727 -0.0030797657 -0.009696756 0.0037607301 -0.0022186053 -0.009109131 0.0057868655 -0.0011017234 -0.005645636 -0.00088926393 0.007526654 0.0064744083 0.0004135592 0.009782562 0.0038095394 0.0026610498 0.003506024 0.003185518 0.0097004175 -0.014298152 0.009112993 5.2979984e-05 0.0071264612 0.00183781 -0.0030101829 -0.0018316089 -0.0015419952 -0.002031681 -0.0047219214 -0.0013705179 0.007693511 0.002035864 -0.0073141786 -0.011274454 0.0015484899 0.0024799868 -0.010200083 0.0068152132 0.0075234836 0.0005418952 0.010215443 0.011915128 0.0017542215 0.0054049403 -0.009227364 -0.0035614055 -0.00020402772 0.010678049 0.0010072392 0.0061200256 -0.0079125585
one 0.0026509985 0.0020357945 -0.00013890004 -0.0032744415 0.006433021 -0.01323993 0.0064050914 0.012189729 -0.004116514 -0.006058176 -0.008965572 -0.010038691 -0.006474482 0.0046566464 -0.0035390665 -0.0021768035 -0.007028861 -0.0051247883 -0.0008349689 -0.013522575 0.004012411 0.010402143 0.0063074427 0.0004287354 -0.005728454 -0.00036344817 -0.0005531624 0.0012857182 0.0073092035 -0.0005484835 0.009705499 0.005366092 0.004382797 0.004134948 -0.0059125335 -0.0011142334 0.0077084512 0.0072234995 0.0013025058 -0.0070189554 0.008732902 0.00041000437 -0.00081786147 0.008956647 0.0063400147 0.0029340424 -0.001885457 -0.010500265 -0.0014586633 0.0038609018 -0.004523433 0.004544813 0.007171298 -0.0085585425 -0.0070300093 -0.004389784 0.0010365463 -0.0019520735 -0.004684179 -0.0018142916 0.0035549754 0.010041247 -0.0038540785 -0.0075286403 0.0006424703 -0.00304015 0.0077208416 0.0055362866 -0.01148109 -0.005204186 -0.0102019925 0.0031238147 0.005521778 0.0024719634 0.0031319137 0.0018322552 0.0034800116 -0.00090651243 -0.009972798 -0.0008696874 0.0012250725 -0.0025611983 -0.0051829224 0.0012925339 0.0062217824 -0.003635118 0.009991247 -0.0003905853 -0.0070552807 -0.0058346484 -0.0011615144 0.0022039695 0.005459861 0.0019144521 0.013232382 0.0029523743 0.0067310263 -0.0017588045 -0.0018009718 0.0055462723
ribbon -6.84297e-05 0.010752366 -0.007044212 -0.008632858 0.0013516035 -0.008029886 -0.00044402483 0.009167668 -0.0077382782 -0.0106259445 0.0059789233 -0.009135805 -0.0047038924 0.00033723505 0.0006177593 -0.010912449 0.0011654891 -0.0036832832 0.008681132 -0.016395373 -0.0035752445 -0.00073953124 0.0057673245 -0.008457586 -0.0067617106 -0.006948314 0.0011990635 -0.009527682 -0.0057432344 0.0007874379 0.005297006 -0.01073374 0.010901036 -0.0065963967 -0.0010082141 -0.0043931026 -0.0071115335 0.0015237732 0.0013215102 -0.0012164486 0.007540544 -0.01051745 -0.002123293 -0.0027054609 0.0015483915 0.003072236 -0.0015529422 -0.009690609 0.0055887466 0.008301476 -0.004617506 -0.0005756252 -0.004476092 0.0096133705 0.0015609702 0.0045701084 0.0017076613 -0.009451269 0.0044837394 -0.0011408392 0.0076831803 0.004130076 -0.007434391 0.00038059268 -0.0017372209 0.002360086 0.011195006 -0.000835642 -0.012869065 0.007816156 -0.00497331 -0.0057440437 0.005956089 0.0047752727 -0.0011166877 -0.0030061377 -0.006832314 0.0023788442 -0.0073853857 0.008161216 -0.0029994599 0.0021147055 -0.0077311075 0.012733474 -0.002189221 -0.0091898525 -0.0066788644 0.0053398567 0.012147107 0.0042681783 -0.0006594046 -0.0055084606 -0.009459383 0.0038026762 -0.0034822363 0.0062624402 0.0031272261 -0.0035865242 -0.009439211 0.0045841173
we -0.0018419911 -0.007970482 -0.006598024 0.008491958 0.00355285 -0.0131835025 0.0006315419 0.013037173 -0.011259313 -0.009021304 -0.0028746957 -0.014135349 -0.0012449642 0.0035211348 0.009909901 -0.00010028844 0.003429708 0.0033723367 -0.004405988 0.0005575053 0.001107423 0.00019122462 -0.007479276 -0.001141651 0.005701055 0.0027995044 -0.011427269 -0.003949613 -0.007831988 0.006291615 -0.0034183688 0.004697461 -0.0036501286 -0.010441748 -0.008552817 0.007261412 -0.008118818 -0.0076162424 -0.009373243 -0.00785727 -0.0026658452 -0.0012779048 0.005766158 -0.0012807492 -0.0030801268 0.00021143982 0.0034122122 -0.0072266962 -0.0035391748 0.0068725375 0.0073256306 -0.010854276 0.008087973 -0.009285045 -0.009317257 -0.0040460113 0.0040828693 -0.00035768555 0.00042744292 0.0077407435 0.004876327 -0.003028839 -0.005489137 -0.007278476 -0.004243957 0.013869876 -0.0066689104 0.00698871 0.00010033412 -0.0012362378 -0.008248068 -0.004527398 -0.001876408 -0.007379469 0.009423838 -0.006584219 -0.0024356514 0.00495703 -0.0021226215 -0.008240196 -0.007714916 0.003929815 -0.00090651715 0.0024009563 -0.0020893647 0.0018208066 0.0020747802 0.001557908 0.008619496 -0.0068165353 0.010072467 -0.008958668 -0.0017298858 0.0066677285 0.0014124069 0.009147879 0.00675211 -0.009437043 0.00020388541 -0.005449441
night -0.010211708 0.0013650447 0.0075223222 0.008779793 -0.003332222 -0.0082169315 -0.0043880623 0.009817742 0.00030237122 -0.0121476855 0.00030616738 -0.013878097 -0.0016115457 0.006627774 -0.0036956982 -0.0011070485 0.00026675616 -0.0104683265 -0.0025968843 -0.0031150244 -0.0076270546 -0.0050140903 0.0019854857 0.0059834397 0.00037043152 0.010921565 -0.011504107 0.008447956 -0.0068769837 -0.005912921 -0.0044079977 0.0010503222 -0.00086841354 0.00335894 -0.0016533812 0.006345617 0.006840218 -0.01070945 -0.004500652 -0.008828454 -0.0073315217 0.00038516027 0.0015154218 -0.0023769941 0.00052879495 -0.008125912 -0.005853571 -0.0007636034 0.009752029 0.0091145765 -0.0024649338 0.00019159731 -0.0029090566 -0.004103322 -0.005855571 -0.0039289054 0.005882745 -0.008059293 -0.011233422 -0.003844521 0.007499314 0.0020507781 0.006465865 0.009166838 -0.010391483 3.3542437e-05 0.008994035 0.008778676 -0.00016672755 0.012495292 0.007463601 -0.001493823 0.004441163 0.005001088 0.012899957 0.011140533 -0.007666708 -0.0044872784 0.0024905808 0.00052529876 -0.0032175032 0.0077909194 0.0025491607 -0.0024140477 -0.0043089394 -0.009266147 0.007851857 0.007488196 0.0014209788 0.0028063469 0.011859368 0.009430978 0.006664489 0.0031300867 0.0071526556 0.011059058 0.0027730356 -0.0018397549 -0.009071322 0.0015551292
more -0.010514662 0.008846478 -0.004643101 -0.0017108289 0.0027192074 -0.007616751 -0.007365714 0.012801564 -0.008867976 -0.011403328 0.0019198859 -0.0057975585 0.004591009 -0.0053078346 0.0022920214 -0.0019007471 0.008297898 -0.011660673 0.0058292826 -0.01675302 -0.0070827296 0.0016913693 -0.00015612222 -0.0061558625 -0.0063751745 0.005311968 -0.013394446 0.00049170427 0.0019209299 5.740022e-05 0.0029725872 0.006405223 -0.0075324937 -0.013273795 0.0032438824 0.012827538 -0.007010628 -0.010643187 -0.0030575008 -0.013295288 0.0037331744 0.006166997 -0.007191608 -0.0069748154 0.011603524 -0.0023362783 -0.0064586676 -0.0049087177 -0.006650773 -0.0029074268 -0.0028208508 -0.0034304748 0.0006407192 0.008405167 0.004565981 0.0006984833 -0.0075800014 0.0021219945 -0.009756918 0.009851754 0.004022592 -0.0009841115 0.0075407107 -0.002530651 -0.007938971 0.004500605 0.009598722 0.009633907 -0.0034155406 0.0072306553 -0.004540367 0.010216915 -0.0035195053 -0.0038584676 -0.0013193974 0.010230895 -0.0025819424 -0.0018363865 0.004588175 -0.010282475 -0.0062900735 0.0034420285 -0.010475341 0.013872642 -0.0005710878 -0.0061621317 0.005809471 0.012780472 0.0046365955 0.007850866 -0.0026271348 -0.0023063272 0.010380524 0.0056450437 0.007471516 -0.0007952952 0.005899683 0.00027302565 0.008828569 -0.0011455235
von 0.007063364 -0.0041954215 -0.006736493 -0.000982711 0.004532409 -0.0064413087 0.0073737428 -0.0013377598 -0.010842929 0.0057999855 0.004749748 -0.008041277 -0.0054826196 -0.0021913322 0.0013116907 0.008237737 0.002845205 -0.0037490737 -0.0035292227 -0.008085219 -0.008583196 0.0076204594 -0.007207142 -0.004868334 -0.00802438 0.0098944325 0.0026447196 -0.0009866812 0.0023375761 -0.0021757095 0.012606896 -0.0043877256 0.006610507 -0.0071082497 0.008625538 0.012597668 0.007099631 -0.0017851167 -0.0036191524 -0.011960421 0.010506688 -0.010954363 -0.007319895 0.005639172 -0.0002623388 0.006898225 -0.009855356 0.0077128685 0.0038626804 -0.0070416136 0.004987244 -0.007866911 0.00616873 0.0072361953 -0.010565868 0.008420594 0.0071915626 0.0062508755 -0.00998632 -0.0061181965 -0.008955902 0.0056134267 -0.0032843603 0.0054367553 0.0015125615 0.011653223 0.0033112422 0.0019834759 -0.0024301514 0.005779841 -0.009854144 -0.0052754646 0.0020103499 0.0046379985 0.0028729958 -0.008837321 -0.00013062915 0.0077368184 0.004317692 0.0032174664 -0.0072227507 -0.003300593 -0.0051801223 -0.002190036 -0.010130136 -0.0010742617 0.0021803256 0.0085749 0.006681644 0.009352742 -0.00356012 0.010390501 -0.0030204335 0.0008394385 0.00018980388 -0.0019287888 -0.00055849954 -0.009554407 0.009529587 0.0036631005
been -0.0045791273 0.004287281 0.00887621 -0.0056871194 0.0057625626 -0.004894755 0.0046799327 0.006989254 -0.01241928 0.0035111504 -0.0036885943 -0.013559919 -0.0011251989 -0.004406477 0.009435678 -0.00797699 0.0008806806 -0.0024559144 -0.0045674453 -0.011415927 0.008521304 0.0025856397 -0.006852393 -0.0022314072 -0.010667023 -0.002089594 0.0009538492 0.0030400462 -0.008032006 0.0017208991 0.009280674 -0.008217979 -0.001387096 -0.0068672514 -0.0100457035 0.0062674326 0.0074694725 0.00036551457 -0.00026649793 -0.0047362507 0.00072101655 -0.009498376 -0.0011907766 0.006649444 0.0055767694 -0.0011584099 0.0052534705 0.00057566015 -0.005249816 0.00947653 0.010934719 -0.0127909845 0.006995576 -0.0069402116 -0.0027178773 0.0070222155 -0.0032083513 -0.008325204 -0.010901959 -0.009124939 -0.0065923077 0.009854521 0.004076171 -0.008084157 0.0041357065 0.012014368 0.009066925 0.013723016 -0.013937168 0.0015257685 0.0008190166 0.0034667747 0.008519624 -0.008133028 0.008937111 0.011210653 -0.008310217 0.008587259 0.0004888019 -0.004470607 -0.0049594953 -0.00830656 -0.011611008 0.010479888 -0.004847254 0.0092042405 -0.007462218 -0.0020118211 0.010063389 0.008974742 0.007965748 0.008484176 0.007166206 -0.005846977 0.014581868 -0.0033746918 -0.001280765 -0.0085494 0.0064293672 -0.0057134517
want 0.0012486456 0.0003823186 -0.00033498355 -0.0057590166 -0.004159376 -0.008391435 0.0017972802 0.009053293 -0.005245616 -0.000114122224 -0.007357822 0.0058155507 -0.0023215862 -0.005394484 -0.00037271235 0.0067708525 0.000996533 -0.007176272 -0.008291947 -0.012483205 -0.0021394151 0.00873197 -0.0050873444 -0.0002893391 -0.0008807743 0.004832392 -0.011505692 0.0074112485 -0.004713581 0.0056299684 -0.006558965 0.0045140735 -0.006594625 -0.0069209523 -0.0023517068 -6.2962354e-05 5.8218444e-05 -0.0017796892 0.0023160076 -0.005755724 -0.002885577 -0.008867021 0.007829848 0.0047827675 0.011448936 0.0044344114 -0.0066705504 0.00634826 -0.0051249713 0.0045804097 -0.002155381 -0.0028185323 0.0035554895 -0.0022939497 -0.0060890536 -3.7698417e-05 0.0025434026 0.0063612354 -0.008977815 0.005497397 -0.0036059138 -0.00753074 -0.0048620743 0.002757351 0.005348327 0.011673715 0.010294901 0.010299979 -0.007336572 0.0008342228 0.007515138 0.007345818 0.009092829 0.00646597 0.0049364087 0.0034886668 -0.007963602 0.0082304785 0.007341207 -0.0072817616 -0.001516847 0.008908804 0.00014843239 0.011385532 0.0063122916 -0.0025673134 0.009350158 0.010032242 0.0015238327 0.0010881758 0.013353925 0.006887557 -0.0063187014 -0.003518167 0.0013159454 0.005453425 0.002218768 -0.0107484255 0.0027014127 0.0084546
kleigstadt 0.00031698245 0.006582024 0.0030216728 0.0085001355 0.010673511 -0.0020942953 -0.0009003153 0.012132642 -0.009992392 0.005916742 -0.006011091 0.005353309 -0.011426979 -0.00093973824 0.010530746 -0.00527052 0.0003143981 0.0030331828 0.009209042 -0.0077283285 -0.006124338 0.011052878 -0.007358616 -0.000803302 0.0045934306 -0.0069507645 -0.009585761 -0.009869003 -0.0019850386 0.005541719 -0.0050629945 -0.003967911 0.010371251 -0.008516273 0.0020133997 0.007455841 -0.0026834891 -0.007221963 0.006211084 -0.0062834937 0.010528766 -0.0054963147 0.0022354214 0.0056563583 0.002960325 0.0031184999 -0.008516659 0.0065348474 0.00013794577 -0.0027525327 0.006475817 0.0065296926 -0.005979569 0.0015399703 0.0023130777 -0.00054193655 0.0030803166 0.008388221 0.004363062 -0.0057802685 -0.0031442554 0.009631508 0.00055727514 -0.008960034 -0.004622872 -0.0027183136 0.0022219415 0.0045797005 -0.009138333 -0.0014011633 0.007612346 0.0055725127 0.005939349 0.0014083524 0.01196863 -0.003726457 0.006685119 -0.00035409743 -0.0101445755 -0.01026011 -0.0049642925 0.0087000495 -0.0014940978 -0.0042817253 -0.00040808975 -0.004254694 -0.0037051477 0.012671344 0.009640038 0.0013574741 0.006316287 0.0021414286 -0.009483491 0.003055992 0.012589092 0.006680598 0.003769354 -0.0059413053 0.0030380122 -0.008827947
last 0.002249381 0.004486982 0.0004671202 -0.00041468898 0.004322734 -0.002752553 0.003042898 0.016779901 0.0015958386 -0.0006496749 -0.0049169734 -0.010683518 -0.010786688 -0.0015377675 0.005627472 0.0064685848 0.0026698066 -0.0065963566 0.0034063018 -0.010583175 0.00024486944 0.009897433 0.010445336 -0.0022227129 -0.006904881 0.004693921 0.0064525562 0.00812022 -0.0038754751 0.007419926 0.01223292 -0.010068623 0.010576538 -0.0036737567 -0.0062957443 0.0072482876 0.009820787 -0.008981818 0.004616206 -0.009923168 -0.0066098897 0.002689683 -0.0052897832 0.004817252 0.009686335 0.008484785 0.0034119608 -0.010788923 0.005171746 -0.007375192 0.00082723406 0.0065517444 -0.0051928842 0.0047822045 -0.007548792 -0.0059616603 0.010121168 0.00293328 0.0041943495 0.003553915 0.0011931395 0.0038700479 -0.0075878566 0.0073751113 -0.008202097 0.008465139 -0.00436471 0.0043903086 -0.00041283984 0.0008858853 -0.00877628 -0.0049782847 -0.0067955838 0.00918576 -0.0008402822 9.0116766e-05 -0.008656056 -0.0039637676 -0.007145089 0.0025832339 0.002685637 0.0037825208 0.0064877328 0.0061558485 0.008495079 0.0069164922 0.003273915 0.006312649 -0.0040895953 -0.0014262707 0.009354857 -0.0069631007 0.0026935218 -0.0076324586 0.014608272 0.0023552955 0.0021882453 -0.006949571 0.006602902 -0.008057717
be -0.008972921 0.00842812 -0.0024074456 -0.0008101647 0.007025799 -0.00014399985 0.00763104 0.014514284 0.0037462504 -0.010942586 0.0035182405 0.004985048 -0.0055202367 0.0027143941 -0.0018777769 -0.0043878555 0.010768226 -0.002320377 0.0034876617 -0.012135803 0.0067121526 -0.002506782 -0.002879075 0.00054666307 0.009026361 -0.00526087 0.00020372373 -0.0014892597 -0.0089451745 -0.0039339815 -0.005285914 0.0051070745 -0.0011448597 -0.008814741 -6.133593e-05 0.008020987 0.01015189 -0.01153322 -0.002328882 -0.004923838 -0.0015609385 -0.0032376167 0.00743193 -0.0016745334 0.011565194 -0.00076457195 -0.0033632766 0.0052147177 0.008843932 0.00192999 0.0008460869 0.0033195524 -0.0040122145 0.005116805 -0.0019699517 -0.004221343 0.008430098 -0.004295087 -0.0007328161 -0.0063292817 0.0027564843 0.0058985767 0.0058235493 -0.0071786144 -0.0094516575 0.010935462 0.0042888043 0.004354485 -0.010460145 0.0015476553 -0.010552037 0.002201424 -0.0015360331 0.0003732529 0.0078676175 0.003453684 -0.006883348 0.0015675765 -0.008853036 -0.0041477727 -0.00071258575 0.0080807535 -0.0100169135 0.006622485 0.006618854 0.009218907 0.0067359293 -0.0034802542 0.0071945232 0.009778384 0.007699114 0.0036192934 -0.0011846195 0.0035093687 0.008944841 0.011237427 -0.0027719801 -0.010771923 0.0070097884 -0.007221504
any -0.0020257658 0.0031119694 -0.00046100482 -0.0040929127 0.0020599551 -0.013493963 0.0025827573 0.0020938271 -0.007377456 0.002292735 5.386257e-05 0.00022187938 -0.00041847525 -0.008169264 0.010956078 -0.004510318 -0.00030658592 0.005777555 -1.2837597e-06 -0.0024335827 0.0029928857 0.003032532 0.008569344 0.007966399 -0.0013762194 -0.00272689 0.0018851733 -0.008822698 0.0069816834 0.002778447 0.008395741 0.0022115 7.750428e-05 -0.0021192841 -0.00573322 0.0118049625 0.0056283977 0.002177186 -0.006605387 -0.011519087 0.009091134 0.00092811434 -0.004813948 -0.008792844 -0.0022363837 0.00043705967 -0.011202319 -0.0015280343 0.0044675893 -0.008600727 0.0006474283 -0.00855947 -0.0039126114 -0.0011246847 -0.011374128 -0.00192049 -0.005263743 -0.00763728 -0.0009107167 0.0029327099 0.009344415 0.009134208 -0.005663685 -0.008596685 0.005031383 0.008613086 0.007750389 -0.00034418702 -0.008649404 -0.002050092 -0.009127385 0.0065392316 -0.0010293092 0.008403991 -0.0030020836 0.010415052 -0.004054121 0.00905239 -0.0072887763 -0.0078087114 0.0052081556 -0.009542488 -0.0116249025 0.008468357 -0.010941374 0.004698066 0.0042214408 -0.0037097235 0.00581109 0.0022392021 0.01168469 0.003736184 -0.004681609 -0.0023677356 0.010644852 -0.004519322 0.010320686 -0.0049515394 -0.004293494 -0.0050502694
: 0.0014667662 -0.008029264 0.0038927132 -0.0045940806 0.011157172 -0.009670598 -0.006632921 0.010586478 0.007200877 0.0008827965 -0.0039009254 -0.00045984576 -0.010681091 -0.002548351 -0.003339846 0.00081525446 -0.0044317227 -0.009353819 -0.006805418 -0.0012103769 0.0035083906 0.009705312 0.004560345 0.0036451882 0.0035582578 0.0055465987 -0.008038623 0.00089502684 -0.0013977601 0.0057320716 -0.0038386348 -0.0013501755 0.0058606016 -0.008515658 -0.009451651 0.008793729 -0.00022594622 -0.0014024898 -0.008113413 0.0052420474 0.0021146368 -0.00067828374 -0.0010520832 0.00070081325 0.008035568 -0.010251158 0.00039298146 -0.007486835 0.011409922 0.005819743 -0.004533465 -0.0041003306 -0.0057763034 0.009123436 0.007308578 0.0041820607 0.011756975 -0.0050468263 -0.00016280975 -0.0046188408 -0.008707016 -0.003975219 -0.00048298851 -0.0050510247 -0.007761778 0.0043968046 0.00092463184 -0.0053905444 0.0029065902 0.004701606 -0.010752136 -0.00058353133 -0.0046314336 0.0070716166 0.0022246796 0.008960358 0.005563417 -0.0038037477 -0.011266505 -0.006487058 0.006255642 -0.0015049975 -0.003760906 0.004124561 -0.009519077 0.0036803817 -0.007747991 0.013358104 -0.0051482636 0.008896085 0.0014428128 -0.0011315366 -0.0018225387 0.0010343373 0.0069805905 0.0038215977 0.0006188777 0.005919797 -0.0060493234 -0.008736938
time -0.008986927 0.008273299 -0.0011924659 -0.004720919 0.0061966525 -0.012354122 0.004320894 0.01679179 0.0051877773 -0.0049462025 0.00080824416 0.0009741537 0.008185985 -0.0012167181 0.0026094578 -0.005238516 -0.001127535 -0.0007146221 0.0019966788 -0.011576752 0.0050799553 -0.0044074343 -0.002574343 -0.010789418 0.006677156 0.0051662973 -0.0052522435 0.007819896 0.0002095075 -0.009672421 -0.004974722 -0.0048600268 -0.00566183 0.003982317 0.0040657036 0.0052147624 -7.152007e-05 -0.009264225 0.0041778884 -0.008371194 -0.0014043823 -0.008291626 -0.0027802933 -0.00949701 0.005394615 -0.008649918 0.0048366375 -0.009316602 -0.004220526 0.0016558374 -0.007091535 0.0025715146 -0.004489487 0.00094647723 0.006040051 0.0050431653 0.0018077439 0.007319804 -0.0032570777 0.006207143 0.0060445806 -0.0077034635 0.0028667354 -0.008713788 -0.0048156725 0.012474723 -0.0016297837 -0.0016620278 -0.0009828134 0.010197342 0.0054278397 -0.005730565 0.00994403 0.0071981796 -0.0022616384 -0.0001599038 -5.5456927e-05 -0.009079995 -0.004369894 0.009544495 -0.0054934463 -0.0075278347 -0.007567487 -0.0055588833 0.0007228435 0.0052732076 0.0013768437 0.00046959423 0.012433684 -0.008451044 -0.0012222399 -0.008805441 0.010090943 -0.0018661456 -0.0009639428 -0.005409937 0.009490536 -0.0046531437 -0.005424422 0.0028153562
